/* Generated by Edge Impulse
 *
 * Permission is hereby granted, free of charge, to any person obtaining a copy
 * of this software and associated documentation files (the "Software"), to deal
 * in the Software without restriction, including without limitation the rights
 * to use, copy, modify, merge, publish, distribute, sublicense, and/or sell
 * copies of the Software, and to permit persons to whom the Software is
 * furnished to do so, subject to the following conditions:
 *
 * The above copyright notice and this permission notice shall be included in
 * all copies or substantial portions of the Software.
 *
 * THE SOFTWARE IS PROVIDED "AS IS", WITHOUT WARRANTY OF ANY KIND, EXPRESS OR
 * IMPLIED, INCLUDING BUT NOT LIMITED TO THE WARRANTIES OF MERCHANTABILITY,
 * FITNESS FOR A PARTICULAR PURPOSE AND NONINFRINGEMENT. IN NO EVENT SHALL THE
 * AUTHORS OR COPYRIGHT HOLDERS BE LIABLE FOR ANY CLAIM, DAMAGES OR OTHER
 * LIABILITY, WHETHER IN AN ACTION OF CONTRACT, TORT OR OTHERWISE, ARISING FROM,
 * OUT OF OR IN CONNECTION WITH THE SOFTWARE OR THE USE OR OTHER DEALINGS IN THE
 * SOFTWARE.
 */
// Generated on: 02.08.2022 15:37:43

#include <stdio.h>
#include <stdlib.h>
#include <vector>
#include "edge-impulse-sdk/tensorflow/lite/c/builtin_op_data.h"
#include "edge-impulse-sdk/tensorflow/lite/c/common.h"
#include "edge-impulse-sdk/tensorflow/lite/micro/micro_mutable_op_resolver.h"
#include "edge-impulse-sdk/porting/ei_classifier_porting.h"

#if EI_CLASSIFIER_PRINT_STATE
#if defined(__cplusplus) && EI_C_LINKAGE == 1
extern "C" {
    extern void ei_printf(const char *format, ...);
}
#else
extern void ei_printf(const char *format, ...);
#endif
#endif

#if defined __GNUC__
#define ALIGN(X) __attribute__((aligned(X)))
#elif defined _MSC_VER
#define ALIGN(X) __declspec(align(X))
#elif defined __TASKING__
#define ALIGN(X) __align(X)
#endif

using namespace tflite;
using namespace tflite::ops;
using namespace tflite::ops::micro;

namespace {

constexpr int kTensorArenaSize = 5520;

#if defined(EI_CLASSIFIER_ALLOCATION_STATIC)
uint8_t tensor_arena[kTensorArenaSize] ALIGN(16);
#elif defined(EI_CLASSIFIER_ALLOCATION_STATIC_HIMAX)
#pragma Bss(".tensor_arena")
uint8_t tensor_arena[kTensorArenaSize] ALIGN(16);
#pragma Bss()
#elif defined(EI_CLASSIFIER_ALLOCATION_STATIC_HIMAX_GNU)
uint8_t tensor_arena[kTensorArenaSize] ALIGN(16) __attribute__((section(".tensor_arena")));
#else
#define EI_CLASSIFIER_ALLOCATION_HEAP 1
uint8_t* tensor_arena = NULL;
#endif

static uint8_t* tensor_boundary;
static uint8_t* current_location;

template <int SZ, class T> struct TfArray {
  int sz; T elem[SZ];
};
enum used_operators_e {
  OP_RESHAPE, OP_CONV_2D, OP_MAX_POOL_2D, OP_FULLY_CONNECTED, OP_SOFTMAX,  OP_LAST
};
struct TensorInfo_t { // subset of TfLiteTensor used for initialization from constant memory
  TfLiteAllocationType allocation_type;
  TfLiteType type;
  void* data;
  TfLiteIntArray* dims;
  size_t bytes;
  TfLiteQuantization quantization;
};
struct NodeInfo_t { // subset of TfLiteNode used for initialization from constant memory
  struct TfLiteIntArray* inputs;
  struct TfLiteIntArray* outputs;
  void* builtin_data;
  used_operators_e used_op_index;
};

TfLiteContext ctx{};
TfLiteTensor tflTensors[39];
TfLiteEvalTensor tflEvalTensors[39];
TfLiteRegistration registrations[OP_LAST];
TfLiteNode tflNodes[19];

const TfArray<2, int> tensor_dimension0 = { 2, { 1,403 } };
const TfArray<1, float> quant0_scale = { 1, { 0.041921000927686691, } };
const TfArray<1, int> quant0_zero = { 1, { -15 } };
const TfLiteAffineQuantization quant0 = { (TfLiteFloatArray*)&quant0_scale, (TfLiteIntArray*)&quant0_zero, 0 };
const ALIGN(16) int32_t tensor_data1[4] = { 1, 1, 31, 13, };
const TfArray<1, int> tensor_dimension1 = { 1, { 4 } };
const ALIGN(16) int32_t tensor_data2[4] = { 1, 31, 1, 16, };
const TfArray<1, int> tensor_dimension2 = { 1, { 4 } };
const ALIGN(16) int32_t tensor_data3[4] = { 1, 1, 16, 16, };
const TfArray<1, int> tensor_dimension3 = { 1, { 4 } };
const ALIGN(16) int32_t tensor_data4[4] = { 1, 16, 1, 32, };
const TfArray<1, int> tensor_dimension4 = { 1, { 4 } };
const ALIGN(16) int32_t tensor_data5[4] = { 1, 1, 8, 32, };
const TfArray<1, int> tensor_dimension5 = { 1, { 4 } };
const ALIGN(16) int32_t tensor_data6[4] = { 1, 8, 1, 64, };
const TfArray<1, int> tensor_dimension6 = { 1, { 4 } };
const ALIGN(16) int32_t tensor_data7[4] = { 1, 1, 4, 64, };
const TfArray<1, int> tensor_dimension7 = { 1, { 4 } };
const ALIGN(16) int32_t tensor_data8[4] = { 1, 4, 1, 128, };
const TfArray<1, int> tensor_dimension8 = { 1, { 4 } };
const ALIGN(8) int32_t tensor_data9[2] = { -1, 256, };
const TfArray<1, int> tensor_dimension9 = { 1, { 2 } };
const ALIGN(16) int8_t tensor_data10[16*1*3*13] = { 
  /* [0][0][][] */ -84,-21,73,-32,17,35,54,-16,22,9,-30,-29,3, -127,28,-35,-51,24,-5,7,22,-8,-9,-18,-11,30, -23,16,1,-3,-56,-46,-1,-31,-49,-27,10,6,18, 
  /* [1][0][][] */ -8,-91,27,-28,-28,86,37,1,-12,-40,41,-59,105, 25,-100,47,-27,-82,125,67,-43,9,-78,70,23,57, 6,-58,49,-66,-14,127,91,-71,21,-48,51,-38,21, 
  /* [2][0][][] */ -17,-26,-78,-66,-45,-63,44,24,-8,-31,-17,-10,-45, -64,-127,-95,-36,-27,-11,-69,-92,-76,-32,-58,1,50, 49,74,88,-34,-72,-67,-22,-25,-19,11,-1,-33,-15, 
  /* [3][0][][] */ -100,-127,53,-59,-14,42,54,-15,28,63,24,10,2, -68,-32,90,32,0,34,23,-43,16,21,2,-7,-10, -8,11,27,29,-44,67,-12,-5,64,33,35,13,-9, 
  /* [4][0][][] */ 49,30,51,29,-68,46,-14,-77,67,5,19,-48,-18, 53,31,45,70,-127,-8,1,-100,58,85,-38,-19,-20, -36,-18,94,46,-83,-57,49,-76,10,77,-38,24,4, 
  /* [5][0][][] */ 19,29,39,-4,45,31,100,50,56,75,67,11,16, 118,73,90,-33,-13,-12,11,-25,-86,-4,-85,-99,16, -127,-114,-35,27,-2,-2,25,2,-7,64,21,-10,-38, 
  /* [6][0][][] */ -119,54,-24,66,-58,9,50,-40,-39,14,-12,28,-16, -127,79,-89,67,-30,31,41,-44,-31,54,-19,16,-22, -34,-21,-68,-13,-5,59,-37,3,16,26,-61,20,-29, 
  /* [7][0][][] */ -127,44,78,-9,-23,-80,-11,41,-1,30,28,51,11, 19,53,-40,57,-3,115,79,41,-49,-81,-34,-7,-25, -17,78,118,77,46,75,67,20,-1,48,41,4,3, 
  /* [8][0][][] */ 21,42,-39,100,-31,127,49,29,-20,-5,100,-3,44, -39,35,28,94,19,12,-106,-16,42,-1,-1,-42,-37, -6,73,11,89,-43,46,-5,97,58,49,31,-55,-35, 
  /* [9][0][][] */ -55,-21,27,-71,89,-53,44,25,-33,46,11,-28,73, -32,23,-14,-21,80,-64,54,38,-127,85,-65,44,36, -74,-51,26,-45,76,-68,45,36,-55,65,-31,59,-3, 
  /* [10][0][][] */ -111,53,-64,-69,31,127,29,-86,-3,13,-14,60,-20, -63,1,1,-99,42,109,-23,-84,60,70,-41,-24,-37, 75,-8,-47,-8,11,60,58,-70,-24,66,7,31,49, 
  /* [11][0][][] */ 85,96,-49,-42,-43,37,-24,-29,-5,27,24,-94,46, 10,127,4,-76,-49,48,-70,34,-118,87,21,13,-9, -62,97,-18,-104,50,3,-71,29,-45,50,53,-10,20, 
  /* [12][0][][] */ -21,59,-74,31,-90,54,27,39,-115,-1,44,-110,-16, -127,13,-63,60,-120,71,44,39,-94,53,-52,-20,-25, -102,7,-33,76,-104,50,30,81,-85,51,-86,15,-37, 
  /* [13][0][][] */ 45,6,10,-33,-1,47,-4,-3,-7,23,16,-28,-13, -32,57,84,10,107,-8,27,-21,0,3,31,10,-40, -127,-19,-23,-71,-17,17,51,44,43,73,12,14,6, 
  /* [14][0][][] */ -8,-36,-47,-1,-2,44,14,4,-42,-1,50,54,-34, -2,6,-66,75,51,-24,-15,35,32,22,-60,-13,31, 127,69,47,44,17,34,51,-14,-57,35,10,21,-13, 
  /* [15][0][][] */ -3,12,-81,-81,11,-18,71,40,21,-16,9,18,31, -28,57,-60,12,-24,-77,85,52,-93,-16,29,-55,28, -16,17,-21,3,-89,-46,28,-18,18,-22,96,-127,35, 
};
const TfArray<4, int> tensor_dimension10 = { 4, { 16,1,3,13 } };
const TfArray<16, float> quant10_scale = { 16, { 0.0074206623248755932, 0.003901986638084054, 0.0047336961142718792, 0.0047953678295016289, 0.0045380932278931141, 0.0050373324193060398, 0.0054073547944426537, 0.0040820562280714512, 0.0043704034760594368, 0.0052056401036679745, 0.003574080066755414, 0.0041237152181565762, 0.0037889101076871157, 0.0052624344825744629, 0.0059677259996533394, 0.0045072236098349094, } };
const TfArray<16, int> quant10_zero = { 16, { 0,0,0,0,0,0,0,0,0,0,0,0,0,0,0,0 } };
const TfLiteAffineQuantization quant10 = { (TfLiteFloatArray*)&quant10_scale, (TfLiteIntArray*)&quant10_zero, 0 };
const ALIGN(16) int32_t tensor_data11[16] = { -169, -789, -721, -1537, -796, -272, -848, -1683, -1175, -807, -1779, -1356, -2136, -597, -839, -441, };
const TfArray<1, int> tensor_dimension11 = { 1, { 16 } };
const TfArray<16, float> quant11_scale = { 16, { 0.00031108158873394132, 0.00016357518325094134, 0.00019844128109980375, 0.00020102661801502109, 0.00019024140783585608, 0.00021117001597303897, 0.00022668173187412322, 0.00017112388741225004, 0.00018321168317925185, 0.00021822564303874969, 0.00014982900756876916, 0.00017287026275880635, 0.00015883489686530083, 0.00022060652554500848, 0.00025017303414642811, 0.00018894732056651264, } };
const TfArray<16, int> quant11_zero = { 16, { 0,0,0,0,0,0,0,0,0,0,0,0,0,0,0,0 } };
const TfLiteAffineQuantization quant11 = { (TfLiteFloatArray*)&quant11_scale, (TfLiteIntArray*)&quant11_zero, 0 };
const ALIGN(16) int8_t tensor_data12[32*1*3*16] = { 
  /* [0][0][][] */ -8,-69,-116,1,55,-127,77,45,57,68,44,120,104,-22,-28,-68, -30,39,-13,-27,-5,-114,116,-15,37,-43,83,13,49,-68,-53,-49, -102,-7,-52,-13,-16,-40,-24,-105,-46,20,18,-20,9,16,-51,8, 
  /* [1][0][][] */ -73,-76,44,38,-127,-102,-82,55,59,4,78,-34,19,-17,96,-1, -99,38,-99,-78,-102,117,-72,98,67,6,-83,-81,-106,57,1,-114, -101,-69,44,57,-34,77,-72,35,76,-91,25,12,-38,54,76,-75, 
  /* [2][0][][] */ -69,-93,-81,-127,6,-38,44,-66,-73,14,116,63,8,98,-23,-53, 26,-58,-71,-82,69,-6,21,-63,-44,54,95,23,28,10,-26,-63, 27,-45,-127,-50,-86,-124,110,-57,17,54,-61,-36,51,-12,60,68, 
  /* [3][0][][] */ -63,-10,-84,-76,-70,-41,88,36,-41,93,-36,74,20,-10,15,84, 18,82,-80,99,-37,-11,4,-41,-119,86,55,-82,-105,44,-52,17, -6,75,-93,114,27,-52,-45,-13,-111,123,92,-127,-107,66,-19,-107, 
  /* [4][0][][] */ -52,76,24,19,9,-42,-52,50,82,-38,-11,-33,-64,-69,-57,-72, -11,36,30,-66,-8,-26,-49,17,-9,-1,-23,-30,-22,-21,-79,-1, -25,46,35,-18,-46,-27,-31,-21,-65,11,74,9,-127,69,-3,-47, 
  /* [5][0][][] */ -50,-106,6,-21,-127,-87,-36,-9,10,-49,35,-2,-79,1,-101,-79, -92,-24,37,-46,-14,-19,-32,18,25,-37,-65,-18,46,-39,-12,49, -65,39,37,61,58,26,-67,-10,18,-55,-117,12,39,-29,-22,38, 
  /* [6][0][][] */ 40,-13,55,-41,-8,97,-29,-42,-18,-28,-13,-4,-9,43,-74,-15, 117,-56,83,84,-48,-52,0,74,10,-69,33,-25,-25,-44,6,-22, 12,-78,29,-58,-105,87,-54,20,-27,-127,12,67,-40,60,35,-43, 
  /* [7][0][][] */ -55,45,-75,41,30,-76,78,-4,-104,-27,75,-25,-5,-116,63,-77, -78,68,-25,18,65,-64,61,-8,-18,6,43,-127,-54,-56,-56,-31, 19,95,-106,-52,-70,-3,-38,-2,-73,-49,-11,-103,30,-82,-11,81, 
  /* [8][0][][] */ -79,26,7,-67,-62,-111,-32,-7,-19,58,-114,-8,-95,-81,15,45, -4,54,18,-26,21,-56,-12,88,84,-127,-85,5,-69,-20,-32,12, -10,5,-32,-31,17,-95,-34,-4,60,-28,-88,53,27,7,-89,42, 
  /* [9][0][][] */ -50,25,25,-127,-84,-16,-19,35,-94,-8,-4,10,-86,-15,121,-87, -76,18,-21,-34,-82,43,-50,-83,-35,-37,7,44,-126,-67,53,-39, 84,-97,-36,-50,-97,101,-50,-29,-57,89,93,46,-10,102,21,-82, 
  /* [10][0][][] */ -1,26,12,7,91,48,28,72,-6,-45,-38,72,-29,20,-78,-86, 20,-65,-39,-47,-28,9,17,13,-11,-84,37,-33,-28,45,-30,-71, 1,1,-31,-63,-41,42,-57,-40,127,-38,4,86,-24,40,27,-18, 
  /* [11][0][][] */ 28,34,16,48,17,35,-78,-39,39,-88,60,-22,-22,-26,-20,-29, -69,52,5,10,35,22,-44,-13,-98,-24,9,-37,-87,-26,-35,-127, -74,35,-18,37,30,-13,-49,-35,-1,-75,-21,-88,-105,33,-14,-71, 
  /* [12][0][][] */ 37,-127,8,2,-8,-2,79,31,-3,-7,16,36,-16,21,30,-31, -16,-5,-20,-5,88,-60,-25,2,3,-27,-9,4,-96,-45,-30,3, -80,-53,-62,-41,62,14,-33,-72,-30,-13,-46,-54,-79,-30,1,59, 
  /* [13][0][][] */ -57,-77,-13,-59,7,-81,56,-61,-103,-31,50,43,57,20,-30,-6, -54,-67,-38,-124,98,-50,41,21,-31,51,47,109,31,-54,-19,30, -63,71,-4,-31,-14,-28,-7,-93,-127,-43,16,-64,-51,-17,11,79, 
  /* [14][0][][] */ 54,73,-60,-13,-46,-72,11,-2,-43,-61,21,-81,-96,43,-65,-39, -21,56,23,-8,5,-42,-93,-4,59,-14,34,-90,-14,34,4,-96, 28,92,127,5,9,38,-125,-62,29,-87,-9,-113,-69,6,-1,-109, 
  /* [15][0][][] */ 27,-13,-127,-98,-23,-23,76,18,2,61,-8,15,43,47,-68,51, 32,13,-51,11,-5,-5,3,37,-81,43,37,-26,50,39,24,9, -36,-40,-64,44,44,-28,56,-55,3,-12,49,50,84,-80,-47,-36, 
  /* [16][0][][] */ -15,80,-108,-91,-74,-49,-86,-78,-95,46,8,25,-20,44,-64,55, 49,-27,-127,-101,-11,2,91,19,-43,124,-7,91,45,9,-57,-44, -13,-16,-35,48,33,-7,17,3,-51,62,40,18,-14,-84,-33,21, 
  /* [17][0][][] */ 90,-10,-127,3,-116,-49,12,-15,2,64,3,12,-53,14,-43,-5, 54,-38,-42,-34,-91,-30,-14,8,24,43,-8,-60,22,-30,-40,0, -53,-54,-15,-101,-81,-108,64,-31,59,-29,-53,65,33,-52,-89,-8, 
  /* [18][0][][] */ 4,-105,64,-94,-61,80,-87,70,-58,-127,30,-19,-39,81,113,-122, -38,-6,-31,36,-44,98,-12,57,13,-66,48,-66,-12,27,48,-110, 90,-56,8,67,-59,41,-18,27,77,-13,-7,-80,-112,86,41,-25, 
  /* [19][0][][] */ -7,-47,100,52,-44,74,18,61,-20,-54,24,-9,-71,86,12,26, 71,-4,7,-2,-71,-11,-10,69,-65,30,1,-63,36,43,-16,-89, 42,-127,62,2,-77,91,-44,-14,-10,-7,30,-63,-15,6,3,47, 
  /* [20][0][][] */ -17,-32,-59,16,-40,-67,-27,50,-119,61,89,35,5,-57,1,-78, -48,-50,-4,-39,-76,56,-78,-39,-69,-5,2,6,15,-14,-127,17, -24,-51,-13,-92,-50,-117,-28,-60,-14,-93,-9,-86,-5,-12,-90,-23, 
  /* [21][0][][] */ -17,49,77,84,-78,59,-45,-73,-45,-1,-7,-3,-10,26,-42,15, -41,-65,46,-27,5,55,-55,15,-127,51,1,-88,15,-54,94,8, -31,-54,55,-51,-68,-18,-90,8,52,21,-91,16,-7,-14,77,15, 
  /* [22][0][][] */ 26,94,14,61,-61,-88,64,-55,25,-27,-13,-59,32,-60,-3,14, -40,73,-75,-51,-11,-81,69,-40,20,-23,47,21,40,-60,20,-34, -39,27,-10,25,53,-127,-54,4,-65,-126,30,22,-78,-98,-54,0, 
  /* [23][0][][] */ -76,19,6,-4,15,-18,7,-127,-71,6,15,89,-36,19,-40,-37, 1,-20,-12,-94,-24,44,-42,-57,-17,55,16,83,-54,40,-36,-4, -7,-58,-38,-14,-53,-3,-110,-28,-2,38,-62,53,-50,14,-71,38, 
  /* [24][0][][] */ -97,25,-17,34,1,43,-53,-20,-54,-28,-50,-8,-38,-74,-49,46, -45,20,-30,14,60,21,0,-25,-37,47,-105,-23,53,-18,-87,-49, 23,56,-100,27,9,-14,51,46,18,56,-56,8,73,-1,-127,-25, 
  /* [25][0][][] */ -75,-38,75,-35,22,-46,-17,-13,-5,-71,-46,8,-23,89,-31,-76, 49,-49,67,-14,-90,-29,-19,-25,24,-29,40,-30,-80,-55,29,4, -72,-89,114,-74,-13,-3,-14,-127,21,-23,-28,-18,49,36,69,5, 
  /* [26][0][][] */ -49,-14,-33,-30,-42,-24,6,-14,63,-56,-127,5,37,-68,29,-11, -95,-115,27,-58,-102,-118,-20,-4,-91,78,-40,26,21,-95,51,34, -29,-61,-25,-36,-74,-24,2,33,-18,-37,14,6,-48,-11,26,89, 
  /* [27][0][][] */ -71,-20,-59,-36,1,-93,9,-3,-32,-3,-54,-8,-7,-47,19,-61, -127,48,10,-74,-53,-45,7,-53,-115,-2,42,24,-30,14,-6,-67, 7,45,0,-58,-24,-24,-9,-13,-24,17,42,-6,30,60,11,25, 
  /* [28][0][][] */ 49,-60,59,-41,-66,58,-118,41,-7,-108,1,21,-26,40,99,-23, -34,-109,84,-8,-46,85,-93,80,-57,-58,-20,31,-51,17,-61,-45, 31,10,14,-3,14,10,-12,-46,58,-25,31,-127,-23,32,89,-106, 
  /* [29][0][][] */ -43,18,-41,-73,-68,-56,-43,-83,-96,-3,43,-33,-91,25,0,-5, 57,-10,-13,31,-107,-46,-38,-3,-54,6,7,-50,-47,-5,-26,-64, 36,-50,32,18,-127,11,24,20,6,-37,1,7,-22,-14,-10,42, 
  /* [30][0][][] */ 46,28,7,-24,43,48,-75,-69,10,1,23,8,-18,-27,-127,28, -5,-34,-53,-6,67,14,-56,-13,-29,15,-57,15,23,9,-95,32, 52,-25,-83,-25,-23,20,-9,-44,4,33,23,4,5,16,-34,8, 
  /* [31][0][][] */ 25,43,-51,-1,8,-98,54,-32,-38,-14,13,-7,50,-44,-54,-3, -2,7,6,10,-35,-127,89,24,-10,-6,-7,-1,60,-50,4,9, -42,10,0,17,-30,-54,-23,0,6,-40,18,20,-12,-51,-52,15, 
};
const TfArray<4, int> tensor_dimension12 = { 4, { 32,1,3,16 } };
const TfArray<32, float> quant12_scale = { 32, { 0.0033082985319197178, 0.0030864563304930925, 0.0030020324047654867, 0.003020044881850481, 0.0060548661276698112, 0.006003744900226593, 0.0039420449174940586, 0.0027361444663256407, 0.004781241063028574, 0.0030660431366413832, 0.0036867260932922363, 0.0046608378179371357, 0.0052469950169324875, 0.0035773583222180605, 0.0030157919973134995, 0.0036849845200777054, 0.0035306818317621946, 0.003540850942954421, 0.0033053739462047815, 0.0038365093059837818, 0.0027893241494894028, 0.0036496040411293507, 0.0038742951583117247, 0.0053712576627731323, 0.0045271026901900768, 0.0034322282299399376, 0.0055217924527823925, 0.0061634518206119537, 0.0030448934994637966, 0.0060330778360366821, 0.0051352973096072674, 0.0048639602027833462, } };
const TfArray<32, int> quant12_zero = { 32, { 0,0,0,0,0,0,0,0,0,0,0,0,0,0,0,0,0,0,0,0,0,0,0,0,0,0,0,0,0,0,0,0 } };
const TfLiteAffineQuantization quant12 = { (TfLiteFloatArray*)&quant12_scale, (TfLiteIntArray*)&quant12_zero, 0 };
const ALIGN(16) int32_t tensor_data13[32] = { -436, -800, -946, 39, 636, 232, -116, -319, 982, -365, -703, -365, 30, -639, -1842, -618, -261, -828, -645, -263, -893, -473, -813, 446, 306, -388, 238, -31, -630, -342, -299, -676, };
const TfArray<1, int> tensor_dimension13 = { 1, { 32 } };
const TfArray<32, float> quant13_scale = { 32, { 0.00012174356379546225, 0.00011357989569660276, 0.00011047314183088019, 0.00011113598884548992, 0.00022281573910731822, 0.00022093451116234064, 0.00014506508887279779, 0.00010068860865430906, 0.00017594703240320086, 0.00011282869672868401, 0.00013566948473453522, 0.00017151626525446773, 0.00019308652554173023, 0.00013164481788408011, 0.00011097948299720883, 0.00013560539809986949, 0.00012992715346626937, 0.00013030137051828206, 0.00012163594510639086, 0.00014118143008090556, 0.00010264559386996552, 0.00013430342369247228, 0.00014257192378863692, 0.00019765931938309222, 0.0001665948802838102, 0.00012630410492420197, 0.00020319892792031169, 0.00022681163682136685, 0.00011205040209461004, 0.00022201394313015044, 0.00018897611880674958, 0.00017899106023833156, } };
const TfArray<32, int> quant13_zero = { 32, { 0,0,0,0,0,0,0,0,0,0,0,0,0,0,0,0,0,0,0,0,0,0,0,0,0,0,0,0,0,0,0,0 } };
const TfLiteAffineQuantization quant13 = { (TfLiteFloatArray*)&quant13_scale, (TfLiteIntArray*)&quant13_zero, 0 };
const ALIGN(16) int8_t tensor_data14[64*1*3*32] = { 
  /* [0][0][][] */ 61,-19,-22,38,30,-101,-36,44,70,-26,-23,10,-68,-20,-11,-43,28,19,-18,1,-34,-21,-71,-28,-26,-55,-63,-1,-52,116,-22,-42, 11,-110,-17,113,-15,-104,-42,30,-30,-22,-65,47,4,-13,50,49,77,8,-29,-1,37,-28,53,56,47,-50,-100,-1,23,2,-28,-2, -45,-54,-24,44,42,-127,-123,-40,52,24,-71,37,48,10,-39,18,1,-39,-60,26,47,20,37,-4,53,-73,83,-42,-82,-15,21,-3, 
  /* [1][0][][] */ 57,29,-35,-84,66,-80,-37,-44,61,-27,-44,-24,-33,-25,-30,-127,-82,-43,-21,-97,-28,-72,-49,-56,-51,6,-65,-39,-17,-57,-36,-69, -1,-26,16,-14,10,35,-5,-9,9,6,-5,-23,5,53,-41,-52,23,-25,-35,22,-1,-14,-7,34,-41,36,72,99,-21,24,-24,-29, -16,0,1,-30,-34,46,-55,-16,-32,-37,-28,-2,-27,5,-11,14,-11,-45,-20,-44,-2,-20,43,-30,32,-24,-22,34,15,36,24,12, 
  /* [2][0][][] */ -127,34,-31,-67,56,-72,46,-70,-67,-2,38,-14,-110,-14,-39,-2,-70,-21,78,7,-20,-2,6,-101,-26,57,5,-46,-4,-35,-26,0, 40,18,-7,-24,-49,-6,-35,22,-53,-21,36,-90,38,51,19,32,-28,-15,-33,-16,14,-4,-13,-21,-84,18,50,-5,40,-89,-54,32, -36,7,2,10,-8,-69,44,-3,14,16,-10,-76,-55,-87,31,-82,-35,-57,15,-52,10,-33,40,11,-100,23,-51,-120,-15,-24,-58,19, 
  /* [3][0][][] */ -7,-81,29,41,-12,-66,-10,41,17,-28,-1,-16,-15,-9,12,44,46,13,1,31,-31,4,-37,-16,-48,3,-40,-20,-42,40,-57,-52, -26,-68,-22,17,-67,-41,-65,15,8,-11,-73,-28,-127,54,-22,-26,-6,-19,-31,22,21,49,-22,-48,-5,-44,49,-30,27,-1,-38,-35, -60,3,-57,-9,0,-55,-103,-7,54,-25,-61,-66,-64,5,-54,-16,9,-3,-63,20,-30,49,8,-79,24,-40,53,22,-71,-52,-25,-50, 
  /* [4][0][][] */ -18,1,-67,-15,1,-64,-80,24,12,-47,-41,-56,-28,-43,-64,-23,-60,-41,-63,3,26,23,-117,-61,-65,-28,34,-42,-49,-10,-113,-10, -5,68,25,44,58,10,-36,-98,33,29,3,-106,-12,20,-29,-38,-65,-53,29,-95,-12,-18,-76,-40,-103,0,22,40,22,-85,-44,-35, -127,-36,36,23,-92,-100,19,-3,-106,45,-6,-35,-51,22,-27,-38,48,39,86,59,55,21,-96,54,-65,-17,-24,1,22,109,-8,-43, 
  /* [5][0][][] */ 14,14,-13,42,-9,-47,-47,36,66,2,-3,-22,127,48,-7,16,-3,-29,31,-10,-20,-51,36,28,48,-43,-1,-59,36,-16,0,-27, -66,6,-50,43,51,-76,-37,-1,5,17,6,54,-2,-17,35,-17,-32,-4,-3,-13,-19,-29,51,-26,-62,-82,8,-32,-5,-2,4,-48, 106,-36,52,18,6,2,0,31,-12,2,-15,36,-30,-34,-23,-19,68,-40,-10,-16,-33,-15,2,62,-25,-38,-89,-6,6,-105,1,4, 
  /* [6][0][][] */ -22,-71,-67,-2,48,-66,-62,-3,46,21,-19,-41,-24,-115,-26,-79,37,-101,-23,-13,12,-34,13,58,1,9,-73,-37,-38,-114,-12,-65, 15,53,-39,-119,-127,-100,5,31,-98,-25,-51,28,-31,-41,-38,-47,-55,7,-7,-94,-38,-91,-76,-78,-22,-12,-50,-25,36,23,-115,-19, -42,-37,42,-1,-27,-83,-45,60,-24,-89,-104,-3,-69,-34,31,5,-47,-46,-70,-2,57,13,20,-6,-34,-91,-59,-90,7,-23,-46,-76, 
  /* [7][0][][] */ 97,-29,-27,-6,67,-72,-102,65,43,-42,-34,-13,119,27,-46,-66,-85,10,-25,-88,10,-16,85,-65,-20,-13,55,17,-82,-18,-22,45, 18,4,-25,-19,76,-102,-7,11,48,-3,-19,-7,1,-57,-10,-55,-42,36,-53,-50,-41,-24,-9,-27,-50,-12,-52,31,-38,26,29,36, 86,-1,57,-4,80,77,-69,7,-57,-33,10,63,10,-23,-11,42,78,35,-11,-2,46,-20,23,-68,32,-36,-127,41,19,-62,3,20, 
  /* [8][0][][] */ -28,-20,5,-30,-16,-10,-18,20,-61,-58,-76,-51,71,-47,-57,-59,-84,-77,-47,-49,13,-71,-43,-38,6,-79,24,-14,-62,-45,-16,-60, -55,23,-7,-69,-25,34,7,-97,29,-48,-25,-31,-41,-20,-51,-61,-39,-36,-11,-82,-28,-18,5,-57,-11,-17,21,27,-5,-42,-18,20, 83,8,-33,-37,14,-70,-80,-51,-59,-49,3,16,-109,23,-54,22,-76,-67,-44,-127,-44,-86,-45,-36,-25,-34,121,-11,-52,-26,-77,40, 
  /* [9][0][][] */ 20,-26,-72,-30,2,-39,30,6,36,-42,-2,-50,-127,2,-24,-62,-31,-64,11,27,47,-73,-32,28,-45,31,-80,-31,-47,-57,-12,21, -32,-52,-23,-31,-27,-72,-36,-8,4,-48,-43,9,-67,0,-22,-59,13,-60,22,-10,20,36,-13,18,-59,-31,-17,-65,-59,2,-37,-37, -10,-11,-90,-5,-16,17,-60,-54,-39,21,0,-24,-53,11,-16,-17,-6,1,14,-49,-23,-49,-52,-54,-33,-39,-35,28,-11,-8,-26,34, 
  /* [10][0][][] */ -18,17,-18,-127,-18,-72,-44,10,60,-20,-103,-23,-3,-54,32,-85,-102,-62,5,-123,-20,-14,39,-18,-10,-49,-32,-22,-80,-37,-70,-26, 26,-19,-6,-67,15,1,63,-18,-12,38,4,-2,28,25,-57,-11,48,-57,-91,3,-35,-11,14,-16,-67,75,44,10,5,38,35,49, -15,19,-16,2,13,89,-64,39,-73,29,-43,13,12,-31,24,8,27,-32,47,-45,7,-2,-8,-48,58,-11,-58,2,36,55,18,-43, 
  /* [11][0][][] */ -10,-72,-14,10,-70,-25,-113,13,-18,-95,-6,5,78,-36,-33,-73,-20,11,-22,20,2,-69,-44,-2,-14,-7,27,30,-74,24,-91,35, 8,-20,1,-70,9,14,-51,-52,-15,36,-5,-63,-43,-77,-99,-100,16,14,-1,-14,20,3,10,82,-18,-65,-109,22,3,-51,-43,4, 73,-45,-26,-106,-24,-57,-56,-127,-40,-19,-5,-76,44,-56,-56,31,-113,-24,-1,-48,-54,-20,-49,-37,-101,-71,-80,-25,-51,-44,-72,-70, 
  /* [12][0][][] */ 4,71,-8,-46,-83,-105,-5,8,35,-43,-37,-71,-6,-24,-21,-81,-109,-85,-40,-39,-13,32,56,-127,-25,-30,28,-24,14,-18,-35,-2, -54,88,7,-95,102,3,-1,-49,-1,-13,20,-53,-89,-63,-18,-31,-71,-64,52,-20,26,-46,-37,-90,-29,1,-104,-37,24,-25,2,0, -81,16,26,-6,-64,94,33,18,-37,-2,18,-67,46,48,12,25,-20,-56,34,46,-32,28,12,12,-3,36,51,13,-14,-15,-26,-18, 
  /* [13][0][][] */ 12,-14,74,48,-86,-27,-114,41,64,26,-47,16,104,1,-44,-15,127,-20,-45,-62,14,-35,56,69,61,-47,-21,122,-22,21,18,-9, 108,-55,16,-33,-35,-51,-48,94,-40,-35,15,-10,60,36,-23,-47,19,48,-37,-36,-43,-53,75,-53,-6,3,-25,-12,-85,-11,-6,70, 56,-35,28,44,-59,-80,-54,33,11,35,-24,-120,-42,-30,-84,34,-1,-17,-25,2,36,-10,53,63,36,-33,-42,-25,9,37,35,3, 
  /* [14][0][][] */ -10,-64,27,-47,4,45,-54,-10,-39,2,-11,-44,-24,-19,-30,-54,42,-50,-114,-27,23,-45,-36,85,55,-37,-25,-67,-34,-3,-3,-16, 46,-62,-9,4,-61,-127,-40,-14,-47,-30,21,6,17,36,-19,-13,40,25,-49,-30,-4,-46,-4,-15,22,-24,-75,-8,-35,-22,16,2, -11,-56,17,14,-6,-91,41,1,-50,36,48,-31,39,19,-53,66,72,45,-25,56,-17,-11,-19,-80,-30,26,-12,-23,-3,-62,9,33, 
  /* [15][0][][] */ -35,-23,-21,-5,3,-50,1,-28,9,12,-25,-11,127,21,5,28,24,-38,-39,0,-4,-16,22,-2,-1,-45,-58,6,-40,-4,-20,58, 25,-32,-53,-22,69,0,18,38,84,-21,-12,28,87,-7,6,1,-44,-25,-36,-38,-6,-26,29,63,-4,0,-90,86,-34,4,29,-27, -6,-20,52,-25,-40,-51,18,18,19,31,26,19,-18,-22,-3,-14,65,2,-18,-51,11,-29,10,103,-42,24,-79,54,23,94,-15,-3, 
  /* [16][0][][] */ -59,-107,-70,-23,-64,-104,44,-26,-26,-60,-15,11,22,-53,-51,-27,-47,-2,-52,-65,14,-9,-38,53,18,-57,-110,-29,-9,-4,-19,14, -38,-28,-64,-14,-30,-39,-16,-39,-86,-42,-21,-37,-110,-63,-70,-76,-40,-7,-102,-85,-12,-53,-127,41,-39,-54,-33,-75,0,-93,-85,-9, 72,15,-26,-38,42,-77,-51,-63,-30,-88,1,-58,38,-62,-91,17,14,40,3,-30,44,-68,22,-48,17,-45,21,-73,-109,-59,-80,39, 
  /* [17][0][][] */ -52,-26,-15,-44,-7,-74,-41,2,-43,-59,-104,-22,31,-54,-52,-27,-24,-1,-96,-96,18,-24,-43,-29,4,-67,-45,-25,-3,-82,-40,-1, -64,54,2,-86,15,-31,56,-12,-127,-30,22,-44,-36,-37,15,28,19,-23,33,25,26,-32,-49,-17,18,35,-50,0,-69,75,-48,97, 28,-16,11,-13,-18,5,0,-75,-1,-60,35,-38,60,-23,-37,58,-86,-50,49,40,1,29,43,1,-31,55,30,11,43,-11,-8,67, 
  /* [18][0][][] */ -1,-10,-47,-43,64,79,-48,-42,-10,-15,16,20,-43,-37,-43,-4,-55,-62,-41,-87,-1,-23,-30,-127,7,49,-57,10,25,-116,5,-59, -43,-39,-6,-34,-25,92,-63,-29,-29,-46,12,-5,-9,2,-21,-24,-48,-77,-53,-15,-22,-12,6,-48,39,2,-15,33,-33,-3,66,15, 9,-10,-16,-13,37,28,-29,15,-33,-36,-10,-50,-30,-56,41,-24,-42,-61,-67,12,-17,-38,-5,-53,47,24,-14,-4,-50,-44,18,-15, 
  /* [19][0][][] */ -1,-19,-46,-16,11,-74,-66,-7,-102,-68,-82,-90,-63,16,-40,-12,-59,15,-9,-100,-28,-51,-22,-6,-19,-58,81,-43,-35,-23,-9,-24, 50,-52,-81,-88,-61,-74,-81,17,19,-16,-22,-22,-56,-99,-75,-95,-122,-61,-77,-127,38,-124,39,-60,-37,-99,-37,-45,-115,-80,-43,-104, -6,-72,-15,31,-22,-31,15,-37,-24,-52,-84,-63,-37,-27,-4,30,35,-66,44,-66,-31,41,25,22,-55,-77,-64,-63,-55,66,-19,-71, 
  /* [20][0][][] */ -10,-44,-18,-4,-60,77,-56,-49,-1,63,-5,-28,77,36,-24,-28,35,7,-110,-31,-26,-8,-15,60,18,-49,60,93,-5,-54,17,-18, 43,-11,-38,-16,127,2,-107,-43,52,15,-25,35,15,10,24,33,-4,-36,-65,2,23,-27,-5,-18,50,-44,-20,28,-55,-39,44,24, -38,-14,10,15,-37,-65,-23,16,-56,-52,-18,18,-25,-32,17,46,25,4,-13,6,11,-1,22,-27,8,-36,-79,-3,-86,-89,3,11, 
  /* [21][0][][] */ 11,22,15,19,42,-30,76,-12,-53,20,-34,-42,-67,-26,18,-24,17,16,20,-37,17,-37,-25,-49,-42,-9,-105,37,8,40,-76,53, -43,12,-5,-27,-72,72,-16,-28,-28,-17,15,-10,-100,-48,24,-19,-76,-31,24,31,-13,-13,0,-58,4,-24,-39,15,34,-19,22,-18, -34,21,-5,-33,-60,-34,-6,-44,-127,42,-9,-38,-76,-79,22,4,-57,-45,43,26,20,4,2,4,5,14,-65,17,6,33,15,-35, 
  /* [22][0][][] */ -63,1,4,9,-13,-19,73,-13,-57,6,-8,22,-106,-32,31,-47,-69,-46,19,44,-15,-10,16,-31,10,27,-97,-61,19,21,-14,-40, -100,5,-64,18,-63,-91,15,9,-65,19,-33,-21,-105,-42,35,-42,-68,-26,21,25,-4,64,-8,-18,-58,32,-95,-30,-30,-16,13,-34, -35,16,-19,39,21,-71,69,-18,-55,15,3,-22,-122,-14,-19,-32,-127,-72,36,2,-36,-7,-83,-73,21,36,54,47,6,-32,36,-54, 
  /* [23][0][][] */ -125,-48,-31,-71,-60,-14,16,-102,30,15,-73,-46,127,9,-76,-83,-46,-60,-76,-70,4,2,-69,49,-23,-31,-7,78,11,-3,-83,-33, 63,-41,36,-55,-72,1,-22,-32,-4,-52,18,-102,-12,51,-76,-1,-63,27,44,-70,-13,-85,-53,-56,-12,-18,126,-25,-5,-18,-85,-47, 24,18,-24,-49,3,-47,-42,-25,-110,-67,2,-11,0,-7,-54,-20,-78,10,6,-16,9,-1,-18,-122,-9,-46,86,-56,-18,35,22,23, 
  /* [24][0][][] */ -55,-64,-39,-53,37,-54,-53,-64,-27,-25,-53,-71,42,41,-16,-45,-40,28,40,-83,16,-24,-39,3,53,-91,-80,-40,-76,62,-61,-57, -74,34,-8,-37,-99,-41,55,-33,-11,32,-99,-27,-6,-121,-79,-64,27,-66,-40,-90,33,-49,-122,-44,5,-86,-26,-53,-24,8,-42,5, -48,-68,15,-50,-27,9,-54,37,-31,-61,-18,-51,-69,23,2,-46,-14,-6,-7,-29,-53,-94,-103,23,-57,-127,-64,-67,-15,-49,-14,-27, 
  /* [25][0][][] */ 106,-81,6,-30,-14,-71,57,20,18,12,31,-27,47,42,3,30,5,3,-3,11,-35,12,33,41,-45,26,-75,-31,-34,22,14,56, -7,-7,-7,-15,58,-48,-24,-42,41,35,-7,-69,42,20,-30,-20,14,-26,-50,-19,16,30,-7,127,-17,21,-34,22,21,-14,64,-1, 41,-35,-43,-19,-61,-79,2,59,50,-26,-49,-31,56,-30,-35,-40,55,4,-64,-62,18,-50,65,52,-37,-67,-70,-51,-7,9,-5,60, 
  /* [26][0][][] */ -4,-43,-9,-58,37,27,-9,-80,-73,-119,17,-5,-33,28,-73,-53,-77,-64,-86,-6,50,-69,-104,5,-4,27,24,2,-18,-40,-34,-63, -42,11,-15,12,-55,-24,7,-11,-26,-46,15,12,-108,12,-72,-46,-60,-89,-91,-85,35,19,-36,-71,-41,-34,-52,-65,35,-71,-118,-81, -40,-50,-28,-127,29,-53,-14,-83,-114,-45,-21,-65,18,-11,-111,2,38,27,-74,-39,-86,-69,-14,39,25,-33,55,-22,5,-36,-72,-16, 
  /* [27][0][][] */ -4,-1,-6,17,42,-38,47,-23,-32,-31,-7,33,-67,-59,43,-11,-67,-2,40,31,34,31,52,0,-27,-6,-39,-25,-30,-1,-33,-9, -11,0,6,-16,53,-80,-58,0,-75,-32,64,55,-19,-57,-14,-77,-34,-26,56,-47,-1,-52,28,19,42,-60,-58,-67,-52,-11,14,-26, -3,-24,-5,-44,-36,48,-63,12,34,-48,38,34,-36,-30,-12,-65,-127,17,-28,-75,-17,-69,-107,-23,20,34,30,-25,-73,-58,-27,-10, 
  /* [28][0][][] */ -9,46,-62,-101,-50,42,-102,-23,9,-38,-88,-12,-90,-24,38,-127,-7,-44,-15,-77,0,5,-28,-44,-44,-110,-71,-74,-59,-72,-30,-36, -25,-1,10,-39,15,19,-18,-54,-36,9,12,-13,-39,-27,13,26,-21,-41,-91,-59,-4,-25,28,-20,1,-69,-40,-8,-106,-31,3,-72, -19,-23,-28,-44,-6,-51,-48,44,-38,-28,-68,6,13,-37,28,-32,-38,-37,-37,-65,-42,-60,8,-62,-42,21,-32,11,-17,-45,-30,-17, 
  /* [29][0][][] */ -20,-12,-42,68,-95,-57,-47,12,-35,5,-35,24,5,-11,5,12,46,-25,-52,-23,16,-56,-21,-52,93,-70,-44,-44,-26,-85,-26,4, 3,15,-30,41,-32,-17,-41,33,-127,-6,-40,-14,-76,-98,-4,8,15,1,-19,-32,-19,-26,50,-51,51,-85,-48,6,-24,-11,-53,21, 103,-60,-2,29,-101,-71,-40,62,-55,-34,6,7,34,27,-4,9,-12,-71,-8,3,0,-70,13,-22,18,-16,-38,37,-80,-82,-45,56, 
  /* [30][0][][] */ -64,-38,-54,-17,30,-116,16,18,-39,-24,-36,45,-60,-94,55,12,16,59,29,12,-41,-33,37,-77,-37,-42,-50,-22,17,105,-18,-63, 8,-70,-34,20,49,-45,-17,35,-67,-49,40,27,-54,4,27,-6,-41,-30,32,-45,-6,-52,35,-41,-33,-48,-89,15,-3,-33,12,-54, -30,-91,-21,-49,-69,-10,-123,27,28,-35,-19,58,-43,-37,-3,-27,-127,23,-47,-61,3,-9,6,-83,-31,-24,118,-16,-82,22,-34,-22, 
  /* [31][0][][] */ -9,16,-3,-33,-59,-74,24,42,22,-1,6,-25,110,-10,-33,7,10,-23,-9,-52,15,-31,52,29,23,9,-5,-64,-15,-27,-3,13, -41,24,-2,-21,32,-36,15,-31,-9,17,49,-11,-34,23,-18,17,31,15,-65,-51,-3,-44,-68,-31,-34,-10,-67,13,-1,-68,19,-70, 9,-27,38,-55,5,-91,24,7,29,-34,46,-10,127,3,-31,8,-5,6,-14,-51,15,-14,79,43,0,-4,-47,-34,-31,-36,59,5, 
  /* [32][0][][] */ 33,-61,-43,-9,-38,-88,103,6,14,-67,-56,100,5,10,-5,-50,-31,-15,-11,-29,4,-41,-100,74,83,-34,-73,-42,-89,41,-9,-3, 6,-35,50,-33,-34,-37,0,41,-55,-14,-94,15,-59,-91,22,-53,-53,24,-74,-55,-30,1,-28,84,-127,-86,-49,37,-52,2,-75,26, -103,-11,-25,-65,15,-64,117,-50,-51,2,5,45,-35,-19,-66,-5,-12,19,-48,-112,-1,-50,-71,-40,2,12,-115,-22,60,3,28,-58, 
  /* [33][0][][] */ 114,-4,-12,-71,57,42,32,-92,-50,-34,83,-62,-34,-6,-14,15,32,-78,2,-16,-11,39,-57,-26,21,34,-10,26,-36,3,-59,-56, -19,-24,13,-11,-39,-2,34,-78,5,-29,-2,-43,55,4,-46,23,-31,-9,-11,93,-27,22,-19,-51,-29,39,27,-45,5,-9,12,-99, -77,-13,-55,-53,-50,-20,-48,0,-82,-7,-102,-21,-13,-67,-54,-98,-44,16,-41,-3,-7,-28,-11,-37,-78,-97,-47,-127,-52,50,-46,-75, 
  /* [34][0][][] */ 34,5,19,-96,-112,17,-127,35,-90,-4,-1,-21,74,36,30,-80,-113,22,44,-50,-6,-18,18,-81,-115,44,106,-68,-16,48,-81,-12, -67,-35,-85,-93,0,-59,56,-27,10,-39,-26,-12,27,31,-50,-118,-12,18,-28,3,-14,81,27,-70,29,28,18,31,-29,-12,-4,-72, -123,-10,-4,-77,-16,-66,-58,-35,32,-12,-45,8,-9,-26,8,10,-64,-9,-6,11,-2,-50,0,32,-83,-73,21,-54,38,-27,-12,-53, 
  /* [35][0][][] */ -86,60,-37,-113,-87,-3,-39,9,-42,-62,-32,-77,14,-86,-17,-54,-41,-20,26,-29,58,-41,-102,-87,-59,-41,-25,-58,-27,-11,5,21, -29,1,-91,-102,22,-4,20,-42,-26,30,21,-110,-65,-20,3,-60,-22,-93,-18,12,29,-80,-31,-127,-62,-54,70,73,-62,-46,17,-8, -82,-51,-48,44,-25,15,-83,69,-36,37,-55,14,-41,-16,3,-9,45,-2,-59,-30,121,-73,-7,11,-14,-39,-31,-41,26,23,-26,124, 
  /* [36][0][][] */ -43,40,-42,-116,107,-27,127,-11,10,-36,2,-49,38,-37,39,15,-41,-82,24,23,-31,7,104,-9,-47,-10,-77,-43,47,44,-13,115, -76,-12,-22,-50,56,-82,16,-19,-30,-47,19,-25,94,-58,-10,23,-92,-24,34,42,-30,-35,24,59,-125,6,-22,-46,41,-29,104,-47, 5,-9,52,-26,-100,-102,43,-7,-76,57,-78,-25,-4,47,-4,67,67,-37,-4,-78,15,-4,30,-41,-111,33,-29,7,61,0,-22,18, 
  /* [37][0][][] */ 127,-89,81,51,-73,-77,-26,20,-8,36,38,-62,80,66,-6,40,45,42,-37,31,-15,-67,37,11,-44,2,-51,-15,-12,-47,-127,11, 48,-71,-7,35,-44,-105,-110,57,-62,27,-8,9,82,21,-69,11,-17,-53,-48,-15,31,-31,-30,54,43,-16,54,-7,-54,-20,59,22, 36,-69,-32,4,-71,-44,-1,-29,47,-29,-18,-49,66,-11,-51,28,18,61,-106,-19,19,12,53,26,20,-124,-107,-24,-81,-16,5,82, 
  /* [38][0][][] */ -22,-37,-7,-54,-40,-10,-9,22,-67,-58,115,61,-64,-33,42,-60,-22,-35,17,-7,-53,-6,43,-90,46,-1,-94,-20,-107,-17,55,-7, -35,-11,-6,-104,-20,-39,-29,21,-19,-2,47,38,-3,-33,-34,-28,-127,65,13,-44,-25,-56,-73,-76,-51,57,59,-8,-19,-18,-41,-37, -35,-40,-30,64,-39,15,-62,-93,-32,-2,-60,-55,-51,87,-43,-111,-92,-37,-22,-80,11,-42,-85,35,-6,-20,94,19,17,-63,-18,37, 
  /* [39][0][][] */ 2,13,-32,-18,60,14,-36,28,-52,-57,-30,-34,127,89,-37,-73,-93,-69,-36,-50,-40,-97,8,16,-41,15,14,-32,21,16,-18,-11, -4,-79,-36,-80,-23,-1,-79,-1,-15,-60,-94,-29,23,51,-3,-74,-23,-88,-51,-40,-11,-22,19,-61,8,-52,11,32,-50,-20,-17,-1, -12,-41,-75,-56,-43,27,-25,23,-60,-56,-1,-27,-29,-50,-6,-85,-68,3,-44,5,-53,-81,-45,-26,-44,-112,-87,-89,-14,-11,-34,-70, 
  /* [40][0][][] */ -21,8,-73,-73,2,-59,-118,-48,-38,-85,-127,-40,-6,-56,-81,-61,-31,-31,-53,-118,-18,-78,-88,-7,-5,-87,-22,-61,-49,9,-46,-96, -23,-21,-39,1,-21,30,-47,-17,63,13,-8,-6,26,75,-53,-13,50,29,-48,-20,84,-16,-47,78,-19,-21,67,12,-6,21,16,2, 8,-17,-49,-1,18,27,-68,-35,30,15,-2,2,25,3,5,-20,45,-52,-30,-31,-27,-12,7,-22,-13,1,14,-14,11,63,13,28, 
  /* [41][0][][] */ -73,-86,-32,-8,-74,-98,46,-31,-105,7,-16,-40,-76,-103,21,37,49,42,63,17,25,-56,-4,18,1,-37,-127,-27,-42,4,-65,-18, -51,-80,-4,-16,-44,30,-33,44,-28,-56,-12,25,-18,-64,43,-35,-113,-8,-83,-45,36,-14,60,-34,-87,-48,-16,-10,-46,25,-36,-2, 11,-26,-31,-90,39,69,-108,33,-10,-61,69,90,27,-54,13,-42,-50,-26,-12,-91,15,-60,16,0,20,-29,-68,0,-94,7,20,-13, 
  /* [42][0][][] */ 46,2,2,-79,65,103,-34,-102,40,-33,-13,-80,-54,-10,-9,-18,-45,-55,-117,-127,-32,-71,-23,-66,-31,19,-52,125,-32,10,-82,-83, 44,39,-68,-56,-10,94,-57,-22,-61,-45,-32,57,11,41,25,-46,-50,-56,-42,-99,27,-5,-43,-17,83,-10,-40,-48,6,-96,65,-65, 3,-12,-32,-23,62,-21,-8,17,71,-62,20,-38,5,-67,-4,9,25,-84,-8,-21,-27,-16,-16,-87,-34,57,20,12,-1,65,-74,-72, 
  /* [43][0][][] */ -33,9,0,-54,-12,-47,-29,-31,-75,7,-10,-59,-22,-23,2,1,-22,-45,59,-20,10,11,-23,5,-20,10,26,7,27,-6,-38,-8, -13,-3,-5,3,15,-72,44,-8,-74,-10,-13,-73,44,-17,25,-7,-26,-15,33,46,-10,22,-25,-21,-43,-3,-127,16,11,58,-8,-17, -43,21,-24,8,-53,-2,28,14,26,-1,4,-73,-74,-34,-5,-28,-38,23,4,-13,14,41,29,-47,-61,6,44,-37,8,22,-30,12, 
  /* [44][0][][] */ -22,25,17,-55,-125,-7,-17,13,-30,-6,-25,-42,-1,-54,42,-32,-46,-26,42,-66,-19,-67,2,-127,-80,-78,2,17,15,-3,-17,2, -112,105,18,-36,-1,-40,70,-39,-92,31,45,-38,-29,55,13,-70,-86,-81,90,35,-4,-7,22,-45,35,9,-38,4,31,-11,-26,-18, -90,-11,28,37,-26,49,-38,19,-114,13,18,42,-22,4,-20,43,23,35,-11,-5,15,-10,-36,-42,-57,-7,19,3,62,86,12,47, 
  /* [45][0][][] */ -62,127,55,80,-31,-25,-12,-76,5,37,-28,-91,-79,51,62,-66,-3,-39,87,-48,19,-51,-1,-5,-89,-56,-2,46,21,70,-77,-21, -74,-19,-8,-69,24,8,93,-66,-5,18,-36,-115,-12,-72,-51,6,-40,90,-5,28,-63,77,-105,-49,-82,-25,-25,-19,-11,74,-65,-59, -116,29,-60,-114,-73,118,-9,-111,-17,-37,0,-38,-21,19,-19,-1,12,-13,-1,3,0,32,-8,-96,-52,60,0,-4,16,-52,-30,15, 
  /* [46][0][][] */ 9,-51,-51,-42,9,-53,-40,-55,8,-28,-40,-73,0,39,-47,-52,-27,27,-68,-73,-38,-37,-42,24,-55,-57,-96,8,-59,8,-7,-37, 27,-93,-70,12,-11,-56,27,25,-16,-26,-14,13,-51,-4,-65,-70,-16,41,-6,-36,-38,-15,-30,24,-44,-63,11,-55,-101,-83,-83,13, -101,-82,14,-59,-24,-3,-17,-35,-54,-35,-104,-50,-42,-4,0,12,11,-10,-28,-45,28,-11,-88,-8,-127,-14,9,-71,-17,32,21,33, 
  /* [47][0][][] */ -15,-7,-25,-28,-97,-65,7,11,-30,-17,-58,38,-35,-3,14,-8,-36,-18,-25,3,-21,3,55,-39,-2,-72,21,-31,-74,-28,8,-42, 6,-24,-79,-87,-24,-16,25,44,-41,-31,15,15,9,-74,1,-50,-127,19,-29,-18,-32,-35,-8,9,18,24,-91,-5,-28,-42,6,-51, -43,-64,10,-72,-39,57,-51,-52,-41,-30,-51,-74,-34,-4,-48,-56,-49,19,-10,-68,-12,-70,-76,9,-73,-12,80,-3,-33,-12,-67,45, 
  /* [48][0][][] */ 46,-12,4,-29,29,-64,-119,-59,-20,-27,-8,7,58,-20,24,2,-19,11,9,-80,15,-45,8,97,-21,-34,127,-44,-59,-18,-2,16, 76,52,39,-60,-81,23,-67,34,-45,-50,-57,43,59,-37,-28,-48,-60,-58,-84,-108,20,-58,-6,-84,-90,18,-108,-5,-118,-9,-32,42, -39,-65,-69,-125,9,14,-80,-7,-26,-92,-22,-42,-61,86,12,-41,-104,-8,-14,-22,-28,-60,-19,-90,-56,5,-52,-35,-12,10,-93,21, 
  /* [49][0][][] */ -45,22,-65,36,20,-119,-14,10,-23,22,-59,-33,24,-77,-3,-16,24,-65,46,21,-19,-1,-28,9,-22,-25,-38,-49,-30,30,-5,-6, -2,-4,-40,21,127,-20,-48,-10,-2,-30,-39,57,105,-18,24,-5,-65,-34,13,-10,15,-16,21,5,-13,-51,-69,10,-56,-54,-15,-65, 34,-44,3,-4,22,-36,-14,36,-17,-24,5,19,-1,-61,-16,-2,-26,-23,18,-14,22,29,-47,43,1,-20,-31,39,3,-26,10,3, 
  /* [50][0][][] */ -16,3,-14,-28,76,-44,-2,40,41,-12,-56,15,18,-80,-22,-81,-7,-31,-12,-16,30,7,51,48,20,-40,-127,23,-83,27,19,17, 37,-47,0,16,27,-59,-19,-3,59,23,14,-21,53,13,-5,-35,61,9,-51,-23,4,-5,10,48,-13,-44,10,46,2,-9,-25,-21, 17,-49,40,11,6,-52,-35,-17,-17,39,17,-11,24,-10,0,27,35,41,-3,16,17,-12,1,-28,25,-10,-42,78,-24,16,15,0, 
  /* [51][0][][] */ -25,-21,0,-14,17,-60,-14,48,-55,-76,-39,-18,25,0,-44,-39,-5,3,-42,-64,-10,-67,-32,-64,-63,-10,-127,6,-46,-70,-76,-12, 18,-33,10,-46,-3,-38,-56,-52,28,26,30,-1,23,52,-36,28,52,-19,-39,-7,23,-39,30,72,48,20,-25,66,10,-81,-35,10, 49,-9,48,-39,24,37,-7,-4,0,2,10,-6,7,6,-19,31,19,48,-32,-63,13,-42,28,6,20,19,49,-15,-11,-3,5,51, 
  /* [52][0][][] */ 73,42,-55,-19,-14,-53,-60,-24,125,-37,-4,-56,15,-18,-10,-45,-82,5,-52,-43,35,-6,37,-71,-14,59,121,33,-63,-1,-72,32, 4,85,-12,-1,89,-96,-70,-74,44,33,-29,-25,-8,-60,-79,-64,-76,-19,-42,-127,-58,-77,-66,-62,-13,-43,-58,42,-41,-86,-42,-47, 29,2,41,-83,58,108,-69,-25,-36,-20,-5,-52,-76,17,14,-38,-74,-70,-45,-7,11,-19,4,-10,-46,21,33,86,-54,11,-53,17, 
  /* [53][0][][] */ -50,-30,63,-64,8,-46,-89,15,-61,8,-10,-6,-22,-10,-37,-56,20,-46,-58,-54,-42,-47,-9,-15,67,46,-87,-33,-46,-57,15,-3, -51,-70,-80,-90,34,-60,7,-94,35,20,18,7,29,-13,-79,21,53,-25,-101,-42,-35,-33,25,-33,-125,33,4,-70,-53,0,-33,47, 26,-80,-19,-17,-122,-91,-127,34,32,-40,-34,33,50,15,12,-13,-57,20,17,-45,25,-49,2,-49,-65,53,61,-29,-17,-17,35,-71, 
  /* [54][0][][] */ -40,-10,-55,-13,123,35,-69,-62,8,-20,16,-53,-53,-68,-59,-36,-93,-13,-31,-54,-1,-47,6,-55,6,-39,-8,-42,-14,-47,-9,-44, -32,-17,-59,-86,-107,-33,-12,-28,-27,-72,12,-31,-32,34,11,-25,-13,-32,-41,-69,-46,-13,-14,-92,-18,-14,-41,-15,-14,-7,-19,46, -14,5,5,-52,-82,-34,-29,23,-51,2,-49,-38,74,-57,2,-55,-59,19,-20,-10,8,-2,-26,-86,-127,-5,-100,-57,-79,-25,-30,32, 
  /* [55][0][][] */ -55,40,-49,-38,-55,15,12,-17,-48,-18,17,44,-97,-49,40,-19,-54,-14,58,-3,35,57,36,-29,-15,-28,-38,-30,-21,12,-14,-82, -9,-35,-57,-57,-119,-40,-10,8,-63,-39,16,30,-44,-50,18,-31,-72,-54,24,43,6,28,-15,-87,3,-1,-84,-50,-16,-119,76,-22, 2,-10,-39,-43,-52,-86,11,6,-73,-11,-28,-31,-67,20,-32,-37,-127,-39,-10,-48,-44,-23,-44,4,-62,30,81,-11,-33,-33,-41,-15, 
  /* [56][0][][] */ -80,84,-33,-40,76,-127,20,-13,-86,33,5,-30,27,-34,-17,-2,-43,-10,114,39,16,-2,-29,-68,-102,41,-50,-64,24,40,-34,-22, -73,-43,-46,-30,-65,-95,57,-2,-89,19,15,-71,-78,-1,43,-15,-69,-34,-1,33,-17,-11,-30,-80,16,1,-67,4,34,-20,-6,-26, -72,14,31,-78,-44,-96,50,17,-88,25,38,-93,25,-26,-18,10,-17,-8,33,28,9,16,8,-11,-93,12,-70,-74,31,-62,-1,8, 
  /* [57][0][][] */ -127,-92,-78,4,-8,69,-48,-5,-38,-3,-12,-3,3,-71,46,-5,33,-40,-41,-10,-27,-45,37,-39,34,-112,-22,-75,-81,-8,-4,-53, -76,-39,-110,-63,-85,-23,-39,-17,-5,-63,-78,-19,-64,-40,-38,-24,29,0,-90,-74,16,-8,-47,-57,15,-23,-18,-80,-103,1,42,-19, 17,8,34,8,27,-36,-98,-24,23,60,-54,-49,-22,-44,-17,-25,11,-32,-39,6,-14,-26,-4,-15,-53,-14,83,-19,-51,-20,-3,-44, 
  /* [58][0][][] */ 76,-111,32,37,-30,-27,4,-19,-42,77,-30,-39,-25,-9,-43,-1,37,-13,12,17,10,-48,-39,74,-67,-12,-37,62,-1,64,3,-3, 17,-59,-26,2,-127,-5,11,-72,-23,42,-5,30,-5,-35,-36,-26,26,82,1,17,19,3,-48,60,27,-43,-63,-18,-31,32,-29,-5, 3,39,22,-49,-5,57,-41,26,49,-54,13,-20,-8,-14,-2,-31,-37,-15,-56,-35,22,-69,31,-7,-17,35,-38,34,-13,-28,-23,90, 
  /* [59][0][][] */ -26,-26,-25,-51,8,84,-31,-44,110,-66,-4,-17,-23,-50,17,-23,-53,11,-3,-90,-1,-41,7,-51,-2,0,5,-25,-7,0,8,-29, -4,-52,-56,42,-8,-32,-24,20,-32,-11,34,33,-50,-78,21,-5,6,-35,-11,23,16,1,-2,66,55,12,32,-33,-57,55,61,-37, -56,3,-54,-58,-17,-36,-102,-14,36,-68,-44,52,-28,-34,-22,-47,-127,9,-53,-71,19,-16,3,-28,-23,4,68,0,-97,-50,-72,-81, 
  /* [60][0][][] */ -1,-56,24,15,80,-113,-11,-15,-52,-82,21,9,44,29,-101,-62,30,37,-66,-33,13,-91,0,96,-39,-32,-15,69,-8,-107,8,-11, 7,-64,5,42,11,24,-25,22,-21,17,-8,-25,27,19,-58,-48,-37,-48,-1,-37,-21,-36,-23,-74,0,-19,2,-1,-9,-37,-29,-8, 52,-54,44,-17,-114,-127,-36,-29,-64,30,-42,-40,37,21,-25,-11,-36,39,3,-44,-56,-19,-14,-26,-96,-2,-20,-92,-60,-47,-15,12, 
  /* [61][0][][] */ -76,-22,2,-39,-52,-56,-86,-55,-54,-59,-98,16,28,-57,-111,-1,-58,26,36,-84,6,23,-88,-41,-3,-36,-25,15,-72,1,-4,26, -58,-46,-49,8,-51,-66,-72,-9,-46,-84,-22,16,62,-56,-48,-51,7,13,-78,16,-62,12,-34,-58,-19,-6,-59,-31,-86,-51,-127,-75, -46,-59,-37,-41,-6,6,16,24,-70,-52,-92,-96,-89,-22,-16,-15,-31,8,33,-32,-29,38,-57,-79,-64,-64,17,-6,-39,-28,14,18, 
  /* [62][0][][] */ -39,-20,-18,0,12,62,43,-42,1,19,-46,-19,8,-22,-36,-57,32,-29,-32,-39,-19,-63,22,0,-54,-48,-1,74,-20,-29,-25,-30, -14,2,-13,6,48,9,22,-30,-3,-2,22,12,24,4,-81,-44,72,-3,-45,-46,19,-36,-89,-8,-16,-76,-5,-1,-27,-55,-7,42, -73,-127,58,-40,-13,-18,-43,-79,46,-11,-45,20,-4,4,-31,-68,39,-83,-43,-118,-2,-55,-62,19,-8,-96,8,38,-33,-7,-7,-62, 
  /* [63][0][][] */ 4,-22,-68,-63,-44,-60,-69,-42,-67,-4,-52,-33,-48,-8,-18,-47,30,-49,0,-33,11,12,-77,39,-34,-77,15,17,-4,-20,7,-12, -21,-13,-34,-3,-21,-47,-39,4,-38,27,-15,21,-127,-7,-65,-65,-6,-74,-44,-50,-43,3,20,-2,-45,2,0,-8,-38,42,23,18, -56,-9,-90,-5,-22,-14,-34,-11,-44,-66,7,-19,-49,-5,3,-68,-68,-19,29,3,25,-33,-20,-36,-75,-8,-24,-30,16,-1,25,11, 
};
const TfArray<4, int> tensor_dimension14 = { 4, { 64,1,3,32 } };
const TfArray<64, float> quant14_scale = { 64, { 0.0033681057393550873, 0.0063166581094264984, 0.0037868148647248745, 0.0052992468699812889, 0.0053949290886521339, 0.0040595307946205139, 0.0018282992532476783, 0.0032445306424051523, 0.0034177394118160009, 0.0021855505183339119, 0.0048347967676818371, 0.0025145178660750389, 0.0039328690618276596, 0.0031178554054349661, 0.0038611560594290495, 0.004777188878506422, 0.0023892216850072145, 0.004312396515160799, 0.0047408132813870907, 0.0021823523566126823, 0.0036733429878950119, 0.0056911138817667961, 0.0038480416405946016, 0.0039235320873558521, 0.0020561814308166504, 0.0047660577110946178, 0.0023577031679451466, 0.0047324881888926029, 0.0041528567671775818, 0.0035360213369131088, 0.0042063840664923191, 0.0046611703000962734, 0.0029775274451822042, 0.0052673742175102234, 0.0043218443170189857, 0.0035034515894949436, 0.0031219185329973698, 0.0033731996081769466, 0.0044016605243086815, 0.0040484885685145855, 0.004729593638330698, 0.004130043089389801, 0.0039734723977744579, 0.005848912987858057, 0.0037127789109945297, 0.003788673086091876, 0.0025001252070069313, 0.0053752339445054531, 0.0035722602624446154, 0.0051879757083952427, 0.0053483108058571815, 0.0047360882163047791, 0.0036790228914469481, 0.0036370940506458282, 0.0033581156749278307, 0.0041919942013919353, 0.0037534504663199186, 0.0048458445817232132, 0.0050373207777738571, 0.0042849848978221416, 0.0031062818598002195, 0.0028807050548493862, 0.0037061804905533791, 0.00257470877841115, } };
const TfArray<64, int> quant14_zero = { 64, { 0,0,0,0,0,0,0,0,0,0,0,0,0,0,0,0,0,0,0,0,0,0,0,0,0,0,0,0,0,0,0,0,0,0,0,0,0,0,0,0,0,0,0,0,0,0,0,0,0,0,0,0,0,0,0,0,0,0,0,0,0,0,0,0 } };
const TfLiteAffineQuantization quant14 = { (TfLiteFloatArray*)&quant14_scale, (TfLiteIntArray*)&quant14_zero, 0 };
const ALIGN(16) int32_t tensor_data15[64] = { -138, -30, -16, -253, -417, -256, -1536, -178, -2040, -1250, 775, -1628, 355, -142, -43, -161, -1087, 66, -126, -1734, -131, -118, 19, -1617, -1953, -116, -1842, -1174, -2069, -503, -807, -225, -1168, 882, 405, -765, 112, -403, -715, -998, -205, -1730, -202, 425, 247, -345, -2205, -743, -1152, -176, -56, -183, -370, -1015, -1378, -230, 243, -360, -1086, -492, -1061, -1763, -1120, -857, };
const TfArray<1, int> tensor_dimension15 = { 1, { 64 } };
const TfArray<64, float> quant15_scale = { 64, { 0.00013264402514323592, 0.00024876501993276179, 0.0001491337752668187, 0.00020869694708380848, 0.00021246515098027885, 0.00015987397637218237, 7.2002774686552584e-05, 0.00012777734082192183, 0.0001345987111562863, 8.6072177509777248e-05, 0.00019040580082219094, 9.9027696705888957e-05, 0.00015488573990296572, 0.00012278856593184173, 0.00015206151874735951, 0.00018813706992659718, 9.4093236839398742e-05, 0.00016983243403956294, 0.0001867045066319406, 8.5946230683475733e-05, 0.00014466498396359384, 0.00022412960242945701, 0.00015154504217207432, 0.00015451802755706012, 8.0977319157682359e-05, 0.00018769869348034263, 9.2851958470419049e-05, 0.0001863766519818455, 0.00016354938270524144, 0.00013925693929195404, 0.00016565741680096835, 0.00018356797227170318, 0.00011726211232598871, 0.00020744172798004001, 0.00017020451196003705, 0.00013797426072414964, 0.00012294857879169285, 0.00013284462329465896, 0.00017334787116851658, 0.00015943910693749785, 0.00018626265227794647, 0.00016265091835521162, 0.00015648479165975004, 0.0002303441142430529, 0.00014621806622017175, 0.00014920695684850216, 9.8460877779871225e-05, 0.00021168950479477644, 0.00014068410382606089, 0.00020431482698768377, 0.00021062920859549195, 0.00018651841674000025, 0.0001448886760044843, 0.0001432374119758606, 0.00013225058501120657, 0.00016509070701431483, 0.00014781981008127332, 0.00019084088853560388, 0.00019838167645502836, 0.00016875290020834655, 0.00012233277084305882, 0.00011344902304699644, 0.0001459582126699388, 0.00010139816004084423, } };
const TfArray<64, int> quant15_zero = { 64, { 0,0,0,0,0,0,0,0,0,0,0,0,0,0,0,0,0,0,0,0,0,0,0,0,0,0,0,0,0,0,0,0,0,0,0,0,0,0,0,0,0,0,0,0,0,0,0,0,0,0,0,0,0,0,0,0,0,0,0,0,0,0,0,0 } };
const TfLiteAffineQuantization quant15 = { (TfLiteFloatArray*)&quant15_scale, (TfLiteIntArray*)&quant15_zero, 0 };
const ALIGN(16) int8_t tensor_data16[128*1*3*64] = { 
  /* [0][0][][] */ -16,-27,7,-10,-16,35,-35,12,6,-7,-51,18,-80,-25,-35,-33,-7,-13,-77,30,-31,12,-45,25,58,-1,12,-18,22,-22,-4,16,20,-90,2,-21,-63,-17,-72,123,-33,51,-63,-52,-33,-28,25,30,-13,23,6,49,-2,18,25,-8,-56,-6,79,-27,-34,-1,5,27, -9,59,-64,16,-62,-43,25,0,34,9,-14,-16,-7,-14,-35,-24,16,-13,41,83,47,55,-29,37,-20,-38,32,-58,43,-29,-36,-71,9,108,-76,5,-19,12,-23,-92,37,21,47,-8,-9,-75,-26,-50,23,-22,-59,35,20,-22,-18,13,3,-39,-69,47,-66,9,-22,14, -35,22,-7,-81,112,-1,23,21,19,-4,-107,11,-2,4,27,-27,23,-35,-41,-48,-3,-4,6,38,-17,-41,15,28,-34,-48,-34,-13,32,16,106,-44,5,49,-34,-35,67,-53,-40,86,39,42,29,29,-87,-12,42,-14,35,-26,0,-32,2,127,18,-51,-4,45,-55,30, 
  /* [1][0][][] */ -10,-42,-35,-72,32,9,4,-36,1,2,56,-8,-70,-52,-24,7,10,-20,-63,-16,17,-22,-38,-37,-16,-34,-14,13,-28,16,-12,25,37,39,-38,-2,16,-75,-36,6,-25,25,-13,-81,-8,-52,-1,-34,-56,16,-27,-58,-32,12,-8,-2,-10,-21,-30,37,7,-31,41,11, 19,-33,-33,19,-67,18,13,-1,10,-20,-3,-18,-50,13,-46,-39,-13,25,-41,12,-55,-29,-29,-24,-13,33,-47,-43,12,14,-74,-22,-31,127,-61,-39,-32,48,-8,23,17,-42,-13,-18,-37,-4,19,11,-9,12,35,6,-18,29,-34,-86,-24,-59,54,-31,2,-23,-37,-2, 2,-14,-10,-14,27,-35,-4,-9,-1,0,-9,5,-55,4,-30,-18,-7,-42,-28,-17,-16,-33,-59,-22,5,28,25,-19,40,-19,-52,-11,12,-57,-51,-44,-19,14,-65,19,29,-15,30,-25,-40,-40,9,-22,-54,-8,20,27,-25,6,-20,-52,4,7,-16,38,-53,-29,5,-5, 
  /* [2][0][][] */ -12,-26,-19,-9,-71,-18,1,38,3,-4,-36,-17,-13,-16,-31,-47,-19,-8,41,4,18,-12,-29,27,-16,-59,19,2,18,19,-26,-17,-19,56,-38,37,-13,-20,-16,-9,-106,13,51,-95,-7,-39,6,7,-12,56,-62,-3,-16,6,-20,-11,-44,-16,-99,10,-8,-24,51,9, 59,-13,-55,-47,-75,25,-27,-1,-47,-29,32,-1,-35,10,-14,1,1,-16,-35,20,-11,10,-47,-38,9,-99,4,32,19,68,45,-55,-3,4,-28,-54,-70,-60,38,-38,-15,34,10,-58,-14,-74,1,-18,34,82,-8,-16,-34,47,19,-44,-57,-27,-45,18,11,15,-15,-12, -47,-22,5,-50,-59,-28,-14,14,0,-20,-10,-13,-31,-2,-30,-42,-18,59,-26,20,-46,-2,-4,-11,1,20,7,60,16,-5,61,9,20,6,-14,41,-35,13,127,54,81,-67,-4,-26,7,-35,4,100,2,-10,-25,24,-15,91,-43,72,-51,-89,11,48,51,47,10,10, 
  /* [3][0][][] */ 20,-7,-6,-2,-1,0,2,11,-12,-8,-17,-8,-12,-3,6,-35,13,-55,-35,10,5,-24,-6,-25,-5,26,17,-35,-40,1,8,25,-12,91,-61,-1,-14,12,-30,-17,-35,-22,-75,-6,-31,-39,-11,-35,-10,-34,5,-56,-15,3,-25,-16,-25,5,52,-21,7,17,2,0, 25,19,-14,36,72,-2,-5,-35,10,-15,-4,-5,-38,-21,-55,-41,-3,-71,-54,-7,-21,-49,15,14,15,3,7,-11,-3,-41,-11,-50,-36,5,20,-8,-17,-13,6,-9,8,-29,-105,-28,-30,-56,-19,-11,-7,6,-16,-17,13,-15,-36,-8,-14,74,-38,-33,-6,-31,2,-5, 9,-85,-34,-43,127,4,3,-24,21,10,-61,-2,-88,-2,-41,45,5,-18,-44,-17,1,-21,-54,20,4,-14,-15,24,-31,-6,23,16,-5,-63,-7,22,-39,-50,7,3,38,62,16,32,-18,45,5,59,-35,44,16,15,-34,-8,-20,-16,-11,56,55,28,30,-26,-5,-3, 
  /* [4][0][][] */ 34,-24,6,-74,-68,2,13,73,-66,-45,23,-46,-14,8,1,35,0,25,13,15,-6,17,-45,-25,-47,58,-37,-2,7,7,-5,-6,117,26,-18,57,34,59,-112,48,0,-4,48,-127,-58,-22,-1,-27,-80,4,9,-11,-37,29,-34,-16,-31,6,-40,43,-45,-25,11,9, 24,62,-30,-25,-35,9,27,15,96,8,-22,10,-25,55,-41,79,-16,-42,12,-21,21,-60,-39,59,15,42,22,-46,-21,25,-37,-9,-21,43,25,10,-26,27,-36,-29,-2,-50,6,-42,-23,-121,3,5,-39,90,56,14,-20,31,-53,-31,-24,102,14,-2,-35,-54,-22,27, 46,3,1,19,-54,-17,-12,56,-89,17,45,4,-23,56,44,81,18,20,-6,-26,20,-40,-28,-74,5,63,-3,-55,-23,54,14,30,-35,-30,12,47,-13,74,-64,54,-18,28,-90,-30,-38,-37,-3,-22,80,-24,50,48,10,32,-38,-46,-5,7,30,-1,4,-9,-32,26, 
  /* [5][0][][] */ -47,-3,24,-48,25,-23,16,-16,-24,3,37,-2,11,-22,5,-22,38,15,-18,-21,-17,48,14,-23,9,-42,-1,36,5,-20,58,-19,35,-6,49,28,-2,-36,127,27,35,2,-30,1,36,6,3,48,3,-40,-12,-7,-11,-3,0,47,31,70,-69,25,3,25,19,-7, -68,-29,29,-33,1,-51,-4,-53,15,14,-24,20,2,-45,-52,-71,1,-21,-28,-19,-47,-26,22,-23,11,-35,-4,-3,-8,-46,-13,-20,-9,-36,14,-28,1,-71,41,8,-17,-55,-64,22,-6,8,-20,51,4,10,-6,-45,-37,0,-8,20,-1,-24,-21,-26,2,19,-11,23, -18,-7,10,-65,-5,-11,-7,-42,18,18,49,25,-1,4,-23,-62,20,5,-35,8,-80,-16,4,1,-12,-16,-22,0,45,-43,-39,-28,-2,-43,-26,0,-4,-9,4,-3,30,-11,-88,-1,2,-14,9,13,-40,-3,4,-14,2,48,6,-3,8,0,-29,-96,13,-13,-27,-1, 
  /* [6][0][][] */ -28,71,-48,-21,127,-18,-20,-27,-16,-29,2,24,34,23,45,-73,-93,-86,-31,3,-11,-58,-62,-83,10,-11,-17,-14,57,14,-16,-18,-65,-106,-36,-6,-39,-39,111,23,63,8,-8,6,58,77,6,67,19,26,38,-64,9,-2,-12,-1,-35,-31,38,3,10,-23,41,-19, -119,-86,-25,-39,-23,18,5,-6,-2,5,-68,-19,-64,-65,-2,22,-5,12,24,32,45,25,-76,-11,12,-41,18,64,-16,-72,-46,-2,21,-33,91,-5,-82,-36,-97,26,-6,64,101,-55,-57,19,-15,-86,111,-28,21,29,-16,16,-1,-53,13,89,59,40,25,-14,3,16, -16,-99,6,-30,-127,-74,47,-48,57,-18,-75,-6,-15,48,113,-34,-10,71,43,-5,35,-51,-20,13,22,54,-1,1,-66,4,-36,30,12,19,14,-27,-22,96,62,5,-15,69,-10,-89,-6,-50,36,44,27,20,-4,60,4,0,15,3,-87,-35,44,45,35,-59,75,1, 
  /* [7][0][][] */ 17,-3,28,-50,-15,8,24,-6,9,28,11,4,4,22,2,1,-9,9,12,-5,-18,-16,-22,44,13,52,-17,-22,-19,-29,-21,1,36,114,-87,-28,-13,10,-39,-9,71,-8,0,-41,-43,-75,4,3,16,73,-30,11,-34,-35,-13,-3,-29,-56,4,-12,3,16,-23,4, 3,44,16,-26,-56,-25,-7,20,16,-19,11,6,-17,12,-3,28,28,20,-38,5,-46,-76,-52,10,-46,-26,-7,-15,-2,31,-20,27,-12,-34,43,-16,-33,16,31,-14,56,-37,-91,-16,-41,-30,-25,-25,127,3,14,3,-24,66,-36,-39,-6,-38,-16,-51,-13,-11,-33,28, 31,-48,-17,-11,-43,3,14,12,-51,12,-47,43,-25,32,-16,53,16,1,-66,-4,-6,-38,-15,11,1,55,22,-3,-29,26,-19,24,26,20,59,-30,23,29,-6,37,-40,-56,-99,-1,-18,-21,-18,25,-38,17,6,-26,-57,-10,3,-28,13,-55,-20,-19,7,33,10,5, 
  /* [8][0][][] */ -61,-76,-59,-81,-39,-20,-34,-71,-36,-79,-127,28,-26,-94,33,2,29,31,-74,24,-84,-6,-87,30,19,10,21,-17,-82,-73,-55,5,-10,-25,-59,-22,-83,-76,-42,-61,38,-36,-82,-32,-42,9,-8,-51,-52,-22,-75,16,21,-80,-61,-82,22,24,-53,-64,44,32,-80,33, -117,43,-70,-40,21,4,-79,10,21,21,-92,-28,-35,-71,-3,-16,-74,31,-61,45,-79,-78,1,28,-30,-54,-56,-45,-52,25,-49,-39,26,-51,-4,-28,-35,-81,6,-47,-61,-82,29,-96,-73,-48,-56,7,39,-70,-83,-74,8,34,-22,-83,-87,31,-44,-43,37,11,19,-23, 32,-32,-59,-29,-4,-26,4,-3,38,18,42,48,-66,-55,-1,5,-60,-9,-51,-65,-13,-85,-3,-51,-74,38,-8,-64,23,-33,-26,-46,11,-110,-59,67,28,-24,-55,-83,33,-43,-37,-37,-63,-22,-27,-68,-14,-78,-30,-79,19,-75,26,-17,-66,55,41,-118,30,5,7,37, 
  /* [9][0][][] */ -6,-34,27,-57,108,-62,-26,-97,23,-43,-2,-15,-60,-47,-36,-75,-36,-3,-25,-29,-69,-82,-82,66,-27,6,28,-25,-2,-60,-98,-10,-3,-30,-4,-31,-69,-113,63,-83,20,-48,-24,-34,-24,-86,-39,25,5,-24,-22,13,-53,-43,-25,-70,-48,20,-70,-54,0,-27,-32,21, -32,-95,-40,-23,-68,-45,21,-106,-54,-31,-12,19,-73,-41,-106,2,-3,25,9,15,3,-17,-44,3,-29,-44,13,-44,54,-49,41,-69,-30,-65,-60,53,-56,-61,-62,-120,-73,-44,27,-8,-80,36,7,-27,-53,-1,-68,3,9,18,-53,-40,-90,47,56,-81,-65,6,14,21, 44,-100,-25,-9,-2,-11,-2,-36,-86,-7,-15,-40,-6,-10,-32,-52,-16,-20,-23,-14,-45,-91,-41,22,-21,-62,11,-36,0,-23,-44,-88,-23,66,-81,59,-41,-105,-60,-62,-32,-127,22,77,-57,-28,-20,-22,-62,-10,31,-20,-27,-47,9,-60,-46,-28,-112,0,-75,6,-29,16, 
  /* [10][0][][] */ -71,-54,-50,-7,1,-60,-15,-36,-24,-37,-31,-22,-60,-49,48,-70,-17,14,-19,-12,-80,39,-55,-44,-25,-19,-14,-4,-22,-57,-38,4,7,4,-16,-19,-44,18,5,5,-46,-51,6,-39,-47,-26,-19,-8,7,-46,-13,-16,-2,-8,22,-80,-37,-14,36,-48,-127,15,-4,-22, -80,-20,-28,-6,0,12,11,-64,6,-13,-23,-18,3,-39,-40,0,-25,-32,-20,17,-15,19,-8,-30,-11,-12,25,9,-52,-19,-36,-21,6,-70,-29,20,-17,-15,16,-4,-11,-20,-13,-9,0,3,-8,-2,-20,-6,-38,1,13,13,-12,-25,2,17,-79,-42,11,4,-24,11, -54,-36,12,-11,-40,-33,18,8,-12,-20,-32,-20,-31,-37,-8,-19,-2,-14,-18,1,-6,-10,13,-41,7,-39,-15,-37,54,-22,-16,-26,-12,-36,3,2,-32,-20,-23,-8,38,-8,18,-64,-2,-28,-16,0,-18,-35,5,7,5,-28,19,-12,-6,-19,1,-36,-20,-28,-11,-3, 
  /* [11][0][][] */ 15,-52,-8,-13,-11,9,-26,-6,12,19,-32,-72,-7,11,-46,-51,42,-19,-6,29,-19,-16,-15,-61,-22,10,12,-13,-32,17,-19,-15,-29,46,2,45,-46,13,-20,-6,-76,31,-26,-26,-41,-18,-35,-34,-21,30,4,-49,-37,-11,-8,22,-47,9,-31,-59,-23,-27,-14,-33, -9,-41,14,40,-33,3,21,-23,10,2,-35,-29,-6,-55,-24,-10,-13,-36,-6,-3,37,-11,-10,-57,-30,-41,0,35,-11,-41,4,-33,-30,-39,-108,87,-63,24,9,6,-29,37,20,-3,-43,-38,-16,-45,-62,-32,-35,-50,-5,-13,-29,-3,12,-23,20,-15,-67,-6,46,20, 2,-42,-102,6,-124,-76,-4,-42,5,4,-62,-26,-59,-50,-62,-36,-12,-21,-57,-3,-73,-101,-66,-40,-7,-69,29,8,-43,-91,-15,-127,-31,-37,22,60,-75,-63,-3,30,-24,-29,-36,-21,-98,-62,14,-45,-6,-109,-36,-23,-48,26,-20,-12,-52,1,-81,-43,-58,52,18,-3, 
  /* [12][0][][] */ -53,-34,21,-71,-79,-65,-12,-27,-33,16,-82,8,-22,-15,29,-42,-4,10,-40,-23,-39,-65,-89,-23,-21,-95,-18,-34,31,22,-50,-31,-27,12,-56,35,-67,-65,24,10,-75,-47,-7,-38,-24,-31,-17,-20,33,-7,-40,-5,-31,-5,-46,-43,-83,-9,-41,-34,-68,-12,34,-27, 29,-27,-37,-50,-64,47,-8,-52,-7,9,-65,10,0,7,-10,-6,-26,39,-15,-23,-11,-42,-12,-23,15,-84,21,26,18,24,57,6,-30,-57,-5,2,0,-58,23,1,-74,69,7,-59,-7,-29,-9,-16,-87,50,-12,-25,-40,11,10,-40,-38,7,-68,44,-23,13,41,18, -54,34,-18,-27,-1,-8,-19,-43,0,-30,-56,41,-59,31,-27,18,-41,10,-10,-23,-80,-50,-34,-8,5,-12,-5,78,-41,-9,76,-24,-107,-68,-15,100,-26,-12,127,-18,-5,-5,7,-97,-23,-73,-31,102,-19,-24,-52,-24,-54,-33,-2,42,0,28,-70,7,15,-3,27,-40, 
  /* [13][0][][] */ 0,-47,-13,-20,67,37,6,22,22,11,-56,-10,11,-29,-61,-26,-25,-9,-32,14,16,-77,3,-66,-12,19,32,41,-57,-23,37,-35,10,52,-35,19,34,6,33,14,-15,61,-38,24,5,-54,-7,-18,-10,20,29,-39,-7,-30,-14,-30,-36,-51,-20,42,7,8,-6,0, -38,20,-5,-21,93,4,15,-54,36,17,46,18,12,14,-58,-12,-20,-43,-43,0,-60,-37,-50,-52,-4,-36,4,38,6,-60,33,-2,-26,-98,2,51,-44,0,112,3,-15,-56,-66,-67,24,6,4,54,-29,-18,44,6,30,-20,9,31,7,-21,-42,21,-1,19,-35,-8, -13,-13,-30,-52,-20,-61,-8,-21,-15,0,-60,-30,-89,-62,32,-52,4,0,-23,1,-5,3,10,-23,-7,-24,54,-53,-60,-49,-16,11,11,10,9,48,-127,24,21,24,15,46,17,-6,-79,40,13,-4,42,-88,-39,-47,-5,4,-2,-106,-47,37,87,-77,6,13,-6,-19, 
  /* [14][0][][] */ -127,-20,18,-44,-38,-40,-48,-51,-5,-57,41,7,35,31,-34,11,29,-36,35,1,-36,-50,27,1,53,21,-3,-50,0,-4,-57,-64,29,-10,-2,-30,-30,-27,-59,-52,8,-57,-18,-56,-7,-40,-53,12,-11,-53,-62,30,3,-2,-5,-70,-30,-12,-40,-26,34,-5,30,37, -69,-66,11,34,-36,24,7,10,-45,-54,50,27,-12,-47,-16,-40,31,28,-36,2,16,10,-48,-3,-24,-61,50,-15,19,33,-69,-18,18,-23,-54,-87,-42,-52,-63,-20,17,-17,-38,-46,29,-37,-44,-43,-54,-24,1,-55,20,-65,-35,28,-63,-47,-26,-44,30,10,-69,-63, -30,12,-52,28,-34,-28,-4,-45,20,-44,0,-62,-51,-39,-24,-2,30,-1,-12,23,-45,32,-34,-28,-39,-62,4,-57,24,-40,12,-59,-28,-46,17,-52,-53,7,-22,21,24,-39,-31,-36,30,-58,30,5,-66,8,-58,-68,18,-12,22,5,12,-6,35,-13,-26,10,-32,-49, 
  /* [15][0][][] */ -96,8,-57,40,23,-39,-79,-73,29,36,-10,-56,-56,-58,-24,-24,37,-28,-18,-27,-57,-10,-9,-72,39,19,-43,-53,-60,-56,27,-16,44,-46,-13,-35,-83,9,-45,18,-82,-50,21,-97,-36,-18,-40,-37,15,-49,-42,17,-32,16,0,-36,0,44,-80,-66,-31,-21,-68,11, -69,9,-34,34,-70,27,-72,12,-51,-68,-71,-35,-32,1,-73,9,2,-34,-51,45,-18,5,-25,-38,-30,-57,-48,-18,-1,-12,7,-6,38,-74,14,-11,-89,31,-67,-13,-39,-61,-41,-41,-18,-46,-28,-71,8,10,-28,-46,-42,-33,26,-67,24,-28,-14,-47,14,8,-11,13, -127,31,-37,-22,-12,-54,-54,-63,-60,17,-73,-29,9,-65,36,-27,-14,-67,1,-10,44,-78,-29,45,-27,15,66,35,27,20,-48,-10,-48,-18,5,-58,-38,21,22,-74,36,36,-33,-80,-64,-39,-56,-45,-24,-50,11,-76,-64,23,-50,40,-59,-78,-76,-1,41,-13,-8,18, 
  /* [16][0][][] */ -41,-14,-22,17,41,-47,-21,0,15,5,-47,-8,-29,-55,-45,-2,13,-12,-11,3,6,-27,-35,-6,-1,-36,-6,-2,-9,1,-73,-26,-11,15,-7,11,-28,-38,-7,-9,52,-27,-20,-60,-23,22,-10,2,-2,18,-7,-17,26,-26,-18,7,-53,-30,-24,3,7,-10,5,1, -31,-20,-14,15,-30,-39,-20,-31,-4,8,-60,-15,-51,-31,-44,7,10,5,-39,8,13,-28,-18,-13,-10,1,0,11,39,-45,28,-31,-8,-16,-25,-29,-66,-3,-4,-2,-6,6,17,-23,-65,-19,-1,-50,19,-40,-60,-9,-61,-36,-7,-34,-39,-23,1,39,-18,-2,-11,-7, -37,10,-57,-7,37,12,9,3,2,-4,-127,-6,50,43,-12,-3,-4,-14,24,-5,14,-27,-34,-16,6,-27,-4,-10,-9,26,8,-4,-2,-44,-24,11,-40,-20,3,-15,26,-7,47,-5,-1,20,17,-40,17,13,-30,-49,6,4,19,-46,-14,17,-30,18,-13,-1,0,8, 
  /* [17][0][][] */ -16,-35,9,-27,-7,21,24,16,-1,11,-64,22,-19,49,7,24,29,0,-29,-20,19,-3,-10,12,6,25,16,-25,-23,23,-30,27,15,15,-49,24,34,2,-31,-43,-3,-18,-1,-10,-6,-11,21,0,-17,8,32,48,23,-7,15,-54,19,-58,28,-23,0,8,-24,-5, 62,6,18,25,-127,-25,-8,39,-26,9,86,29,-51,26,-75,50,8,12,-51,-8,-51,4,7,-32,1,58,6,2,-34,53,10,2,1,41,-52,-19,0,57,-55,-22,15,18,-56,22,-28,-15,1,3,102,-6,-18,9,-27,-16,-15,-56,-15,-52,28,-37,-33,0,20,-7, 10,-1,-17,-1,-44,-13,23,50,9,9,35,0,-23,-16,-26,-20,-14,-7,-45,-14,-2,-37,-63,-37,3,-12,-1,-60,34,-3,-16,-51,-18,-89,43,23,-32,-10,-23,-10,-48,-51,0,-64,4,-44,-7,-23,73,-26,12,-5,29,-21,-38,-30,-47,-9,-83,-86,-38,0,23,-2, 
  /* [18][0][][] */ -44,65,29,70,-42,-13,-9,24,-2,7,31,-6,44,-43,1,-2,-30,-25,-27,-22,-6,-29,34,-34,32,-2,6,-10,-31,-46,6,-42,-22,9,-26,-11,-22,1,-35,62,-11,-10,-20,-69,25,-4,-12,19,24,-4,6,33,84,25,48,-8,-23,98,-105,-16,-9,13,-1,1, -32,127,-8,-29,13,13,-17,21,3,14,85,8,33,9,-17,30,28,17,8,21,-3,68,-21,4,-12,-79,-16,22,-19,19,39,4,-3,2,31,-30,-34,-16,7,-18,16,37,-12,-33,17,21,3,16,17,-19,-15,15,24,8,16,30,5,-56,-69,11,15,23,38,6, 25,26,4,3,49,10,1,6,5,9,-44,6,13,41,32,-18,12,-37,-19,4,-16,-4,10,-15,9,34,7,-2,47,17,6,-14,24,-5,10,-3,11,-1,79,-1,35,-14,-12,25,-24,-24,18,42,64,-49,23,-56,-16,18,38,43,-8,7,21,-14,15,25,-41,-3, 
  /* [19][0][][] */ -38,65,-1,25,-71,-30,19,30,5,5,3,4,45,-34,18,19,-23,-3,4,3,23,-59,-30,45,16,-50,73,-68,-34,44,-11,-49,-67,34,-86,-6,-50,-26,48,-9,42,-71,32,-55,-24,-21,7,12,-44,-5,-23,32,47,17,27,18,-44,-50,-127,-21,-35,7,-35,-11, 109,103,-4,-1,-9,41,5,10,30,5,-22,27,-48,62,-8,17,19,-56,-7,-15,29,42,1,21,10,-27,-46,-13,0,74,-8,18,-9,19,10,15,-38,48,-31,45,29,26,46,-50,-36,-64,2,-56,5,85,16,-25,12,-13,20,-27,-46,-15,-44,33,-13,-1,-12,-12, 21,-46,27,81,-82,46,-22,56,2,7,63,9,-8,30,20,38,-25,-69,-40,2,-10,-33,-15,-23,7,57,-29,38,1,31,72,-20,66,34,38,-5,14,36,47,4,8,4,-55,-11,-6,-39,10,-14,-23,-32,31,-21,-49,-60,0,36,-41,-27,4,-1,7,-33,67,-23, 
  /* [20][0][][] */ -60,-32,-4,-50,-14,16,-12,16,-3,-33,9,6,-57,-13,55,77,-28,84,-5,-19,48,-54,-38,18,-22,-54,-21,-30,2,15,1,17,-8,-56,-7,79,15,32,-66,-8,17,-1,-4,-62,-33,-95,1,16,-27,11,-10,12,-36,66,13,-59,-2,82,33,-1,6,-7,-90,14, 82,-47,-19,-23,34,3,-14,13,29,-14,-11,6,-92,5,-22,58,-6,-21,-61,-11,38,-5,-67,-80,-10,3,16,-6,85,23,-16,-23,11,-58,8,87,0,22,-39,-78,-36,106,15,-82,-74,-60,-12,-51,-44,127,-27,9,-61,11,-24,-14,-45,40,-29,29,-31,-16,29,32, 32,-12,-2,-18,-59,-80,1,67,25,39,6,-17,-51,50,7,63,15,24,-22,8,57,-92,-97,-9,-1,-32,-28,29,-68,54,26,4,66,-107,-14,41,-17,33,87,-32,34,32,-12,-36,-36,-46,-19,53,-24,33,5,119,-12,31,-12,0,-31,-60,22,46,25,21,-14,-7, 
  /* [21][0][][] */ -119,-45,42,-97,-23,-9,-28,13,19,-5,15,-24,75,-15,9,28,34,57,-67,-11,-112,20,-32,26,3,6,29,-30,-26,-20,-4,46,24,76,5,3,22,-28,-23,22,44,16,-17,2,17,-29,7,-31,-13,-27,21,5,-32,4,8,-41,25,26,-70,-90,-12,-10,9,20, -33,-49,80,-126,-17,-30,-9,36,-15,8,73,27,39,-3,12,15,-26,97,-45,-9,-32,-8,-24,11,2,106,24,10,-55,15,-25,35,65,-19,110,14,40,-15,8,-32,86,-72,-127,28,32,9,4,-21,33,-38,66,80,-34,51,-62,24,9,53,-15,-120,-7,15,-4,29, -46,39,8,-87,106,16,-14,-65,-11,11,-6,24,-7,-31,-34,-13,36,-6,-59,-23,-62,0,32,-45,-6,36,-44,-12,-99,-69,-54,-3,32,-58,27,0,39,-7,21,-37,-16,-35,-115,-20,-11,-20,-7,-16,17,19,6,-28,6,-36,-37,-10,31,12,-8,-92,10,-14,-16,2, 
  /* [22][0][][] */ -29,90,-29,52,81,-14,14,65,14,-7,96,-20,-1,61,-6,59,46,92,45,17,24,15,-40,-38,7,-4,-9,27,-9,30,-33,27,79,-8,-43,41,-33,29,-62,61,7,-39,62,34,29,-5,-3,-52,24,88,77,91,52,34,27,-95,33,42,25,-25,-34,-14,7,-18, -83,-59,-47,-91,-127,-45,-7,77,-37,-6,35,-7,20,-38,64,-59,9,39,11,8,19,51,-39,-7,2,-44,-12,-35,-26,-10,-65,-16,-8,-35,57,37,-61,-74,-65,8,30,-21,97,-35,-31,-39,37,-57,-5,-67,-41,-14,-31,14,45,12,26,-86,3,-35,-43,-28,4,-15, 31,-1,28,-45,84,72,31,-11,40,-2,75,35,24,-7,51,-63,-32,38,47,27,43,41,25,13,19,-37,-17,-8,45,11,-17,14,13,-54,-14,5,27,1,-40,-88,71,-24,-47,-22,42,-113,38,-32,-43,-5,77,4,-30,-12,26,11,-3,4,-48,51,17,-29,-32,42, 
  /* [23][0][][] */ -66,-52,26,-21,-4,-23,-51,-23,17,-50,38,-19,7,-19,-47,7,67,2,-54,41,18,-103,-90,28,44,-75,20,-53,-60,-40,-29,-42,-14,31,42,-22,22,40,-44,-30,-127,-81,5,9,38,-40,-13,-2,-7,-55,-4,-72,-59,-6,-28,-77,25,-59,-50,-121,13,-79,-48,-33, -101,42,-74,-87,-60,-19,-59,-39,-33,44,17,38,47,-35,-86,-92,-2,29,-31,53,-72,-38,-73,8,-60,-101,13,-1,-8,-22,13,-12,31,-5,-72,59,-86,-93,37,-41,-37,-42,-56,7,-29,-84,27,-52,-10,-42,-15,-18,-88,-81,-25,-84,-93,-47,33,23,44,-49,41,-89, -88,-31,-8,-37,-40,-48,21,43,25,-93,58,35,-53,38,-82,-88,-9,-71,38,-60,-72,-24,-56,-52,75,35,-27,-64,-28,-49,-36,-56,39,-107,-68,12,-20,4,-48,-9,76,-5,-17,-85,34,41,81,-14,-60,24,-47,12,-70,-74,-74,-39,28,-6,-89,-39,-58,-27,-9,-14, 
  /* [24][0][][] */ 34,-5,-7,52,11,17,6,48,-27,5,83,26,26,-12,-6,-19,-6,-52,11,0,27,-8,11,-52,-21,65,22,-5,-32,15,-11,1,21,66,43,32,5,51,-101,6,-39,10,-23,-38,27,15,3,-27,20,-3,-14,8,-6,-41,-36,-47,-40,63,63,-16,1,0,7,8, -34,26,-37,8,51,14,-10,42,3,-11,-13,-20,3,21,6,20,-3,-11,1,-1,19,-2,-22,-36,-44,-17,8,-7,-17,-19,15,7,11,-114,-47,24,9,-34,26,13,55,17,-14,-46,-36,-49,-25,-30,-54,10,41,-16,8,-14,-1,-11,-16,91,-27,-42,-37,-8,-5,7, 14,7,20,28,64,2,7,28,28,-6,-127,-14,-38,56,67,17,22,46,-6,-12,42,-47,-60,-36,23,11,-40,-35,-38,15,-47,12,-25,-47,-52,17,-17,61,-13,33,56,3,-30,-31,-6,4,24,11,39,-14,-5,28,-1,-3,12,-36,-51,76,84,4,36,9,6,8, 
  /* [25][0][][] */ 1,0,25,-99,-40,22,-4,60,20,21,-23,-5,-33,54,44,98,-6,-4,-4,20,-13,-29,-32,-4,-23,-36,-29,-21,-42,11,3,10,-30,-2,25,-1,17,8,4,-12,-16,35,-2,13,13,-28,-16,7,16,24,54,35,-26,127,-22,26,-17,32,24,-15,21,-4,46,7, 0,-34,-22,9,-26,-16,10,-9,-4,8,-44,-24,-45,-16,0,19,19,-9,-28,-12,-5,-33,-28,-29,-11,39,-24,32,37,-1,10,9,-32,-30,23,1,-8,25,-8,-35,-40,24,-2,-45,-37,-57,17,-12,-17,50,-39,-21,-34,-38,-9,-7,-3,-70,7,27,-11,32,32,20, 3,-21,10,-14,58,-45,-6,-2,-9,-1,-45,-14,-13,30,3,25,2,38,-13,-4,-37,-53,-59,-33,-23,22,-9,-6,19,-4,31,-18,16,-53,-44,-27,-28,20,83,-20,2,-35,3,-31,-34,-41,34,40,89,9,26,13,-15,-4,-43,-9,3,-35,19,32,31,16,18,10, 
  /* [26][0][][] */ -89,92,-27,-36,-84,-23,23,63,19,-21,127,-40,79,-20,-63,-28,-32,1,36,21,25,-32,-50,-56,20,-24,-12,-28,40,-44,8,-33,-24,-33,-30,-43,-25,-53,20,61,3,-63,25,-118,-7,43,31,13,-2,-39,-65,-11,97,16,10,-43,-16,46,-126,-11,-31,-13,41,-11, -7,51,23,-62,-41,4,28,-53,18,26,18,51,-20,70,55,-54,11,-9,37,16,6,38,-64,57,12,-96,-15,0,-34,49,-23,-35,-27,32,-23,-5,-71,15,-67,-48,51,-64,34,-53,-20,5,12,-40,-2,29,-2,69,-52,-26,54,-8,-18,-30,-3,14,6,29,63,-14, 25,-25,-35,-95,-14,27,18,-9,38,-10,-23,-38,-11,-11,-15,42,7,-2,-19,-27,-4,-40,-36,-10,21,-9,9,8,18,18,24,-6,74,17,38,12,4,-11,-69,-36,-16,23,-97,38,2,-15,17,10,-51,-13,58,13,-34,6,-47,-26,6,19,47,-19,26,41,-42,-4, 
  /* [27][0][][] */ -18,-34,-36,-70,98,-4,15,16,23,-3,-22,36,-47,-54,-39,-30,14,-12,-27,22,-20,-33,25,41,23,-65,31,16,16,-25,55,-7,74,55,6,7,37,9,77,65,-84,41,9,4,-18,-84,-20,127,65,5,-14,-32,5,64,10,94,-12,13,-4,34,-11,-10,2,-15, -23,7,-11,66,-20,29,-17,58,-33,23,6,10,19,18,-33,42,-6,20,-30,-2,-67,-64,8,7,-8,93,-9,27,2,-21,-4,31,71,-79,40,31,15,40,27,-11,24,28,-19,-8,0,-29,14,-12,-3,41,0,-2,5,22,-1,14,3,0,50,-24,-33,9,-30,11, 15,-38,-3,-35,-64,-36,17,-1,-1,-19,-71,-22,-82,-43,-10,-40,4,12,-66,23,-12,-29,-84,-27,-2,-5,-1,30,-1,-34,5,5,-16,-105,-100,-21,-25,3,24,-22,9,-15,-50,-25,-34,-52,-17,5,59,-31,-51,-16,-28,9,-12,-39,-19,-99,29,33,-35,-13,-38,-7, 
  /* [28][0][][] */ 40,-31,19,4,15,-3,6,-46,-21,12,-29,3,4,-1,-29,-13,17,2,-24,-26,-23,-35,-33,-3,19,11,-27,-19,4,-56,-71,-37,-34,8,11,5,-30,19,-42,42,-33,-14,17,-3,-32,7,0,3,-12,-24,14,18,-9,-25,-6,9,3,-22,-37,-20,-21,-13,-7,-9, -36,9,0,-5,-36,-12,-22,-29,-3,11,-17,-17,-19,-49,-13,9,5,12,4,6,-34,-3,-12,15,2,13,0,-36,-3,3,-32,4,-34,-24,16,24,-23,-37,-22,-21,27,-22,-12,-23,-34,-13,-1,1,34,-20,-50,-24,-32,-33,1,-45,-29,20,-32,-25,-40,-7,30,-24, -127,-15,11,-42,19,-7,-18,13,-4,-21,28,-21,-5,-31,-19,-13,-37,8,-24,2,9,3,-18,-12,31,-26,-16,-19,-31,2,-24,12,-30,-34,7,9,13,-27,-38,-13,12,-13,-1,-14,-12,-10,-8,-6,7,8,11,-34,5,-19,9,4,-13,-21,-30,7,-29,0,8,-21, 
  /* [29][0][][] */ 3,-37,-5,-19,-1,-18,1,8,26,24,-36,4,-38,-28,-4,-18,-13,11,-40,6,6,-18,-22,3,-12,-16,1,-38,0,-22,-13,-2,6,-25,-10,-7,6,-23,5,32,-56,-23,-12,-15,-17,1,-16,-32,-13,24,-7,2,-36,1,23,-36,10,-41,4,-24,-26,-11,29,5, 1,-46,-10,16,-20,16,-3,-43,-26,7,-59,13,-19,-30,-8,44,19,-22,-29,9,17,-25,20,-28,19,-50,-6,1,88,16,2,-7,24,-14,-56,-24,-11,-27,-18,0,-14,16,-32,47,-35,-30,-14,-22,21,11,-15,-22,-45,7,-3,13,-43,-2,0,9,-19,32,-1,-6, 1,-25,-2,9,7,-2,-30,-7,-18,0,-23,30,-36,-12,-20,-6,-8,-5,-18,-44,-10,-10,-15,-2,8,14,1,-10,33,-21,-15,-53,-39,-34,49,-23,-30,-28,68,-13,-15,-12,-15,-79,-6,-26,-22,29,127,0,-47,3,65,38,-18,35,-27,2,-21,14,11,61,17,-14, 
  /* [30][0][][] */ -62,-39,-1,-61,3,-6,27,-4,-14,-19,-44,2,13,-18,-9,17,-20,-17,19,11,-35,4,-2,-20,-6,-3,32,-17,-41,-49,-33,4,44,6,13,15,18,-47,18,-46,26,-37,-15,3,57,-22,13,-4,-9,25,-36,-15,-21,-42,0,5,27,34,-56,-45,22,1,-30,6, -49,-74,6,-40,-10,30,-25,-24,32,3,-66,-15,2,-18,-19,-46,2,-11,-4,43,-32,58,43,24,17,-48,-8,15,-4,-39,-24,-11,45,42,-29,4,-14,-1,-33,-1,-27,-28,15,53,53,-11,-4,23,2,15,-32,7,12,-10,27,54,19,-49,21,1,-16,14,-39,-18, -43,-11,40,-21,37,-22,5,-7,61,2,-83,16,52,-30,-40,-81,4,12,-23,-2,-59,46,36,74,7,-24,24,-49,-23,19,-37,10,127,58,32,38,24,-70,-39,-32,34,-88,-83,31,-36,21,-13,0,-5,-62,1,-44,-18,-1,-3,39,64,14,-40,-44,-31,-31,-12,14, 
  /* [31][0][][] */ -13,-21,-46,-59,38,-1,34,29,-14,-4,17,-96,14,25,27,60,92,-23,-38,12,5,-80,-21,-63,-4,13,-39,-66,16,8,-41,54,-54,26,8,51,8,-42,80,3,35,-17,68,9,11,-38,-14,-41,32,-45,83,1,-58,45,-45,-23,-17,27,27,-1,11,96,50,-13, 10,-34,-31,-13,-113,-37,-38,-57,8,35,-40,18,-84,33,-41,19,8,72,-3,-11,64,19,-48,-41,-50,78,-18,46,-7,-32,-43,36,2,-60,10,-63,-68,67,-49,11,-36,-13,44,-108,-58,-34,13,-5,12,-20,-91,82,20,47,-62,-44,-53,2,35,-8,-1,-32,127,-33, 9,3,-25,33,-61,65,43,45,30,15,30,-58,43,1,-21,32,15,-30,-15,8,-44,-18,-20,28,-46,85,-32,-14,83,-8,48,10,84,-52,-70,-17,61,-29,64,-7,33,-13,-63,-94,12,-19,-14,-8,-70,10,-17,-50,4,-58,5,69,-91,7,-101,41,21,-4,82,33, 
  /* [32][0][][] */ 27,-22,-3,-17,-40,-45,-40,-46,-23,-10,20,15,-29,-71,5,-45,-5,16,-38,8,-9,14,-75,-18,25,-53,-18,-48,-10,13,-52,-44,7,-4,-1,-34,-34,-64,-32,3,-68,-1,33,-3,-66,-23,0,-25,-12,88,-67,5,8,-8,-28,-39,-51,1,-95,64,-52,18,24,-24, 22,-23,-18,-106,-66,9,18,-6,-10,3,-35,8,-127,-22,-31,-25,-13,-1,-50,-6,23,-24,14,42,16,-86,17,45,-32,44,70,8,11,-67,-107,-123,-25,8,71,-9,-21,54,5,-103,1,-32,-10,15,-6,16,-81,19,-9,49,20,-40,-51,-75,-81,8,-42,-18,28,3, -27,-26,4,-22,4,-6,-21,-30,-22,-11,-29,-25,-18,51,34,2,14,56,-17,-3,-52,-8,15,-45,10,-28,-39,87,-14,-31,55,42,-17,-37,-50,-118,-13,5,88,-42,68,-42,-42,-39,11,6,-15,27,-95,-18,-16,44,-37,-26,-6,35,-38,2,-48,-19,-12,-5,10,-20, 
  /* [33][0][][] */ -7,19,-18,-17,-30,-31,20,20,-16,-24,9,-25,-27,16,-8,-12,1,-10,19,-23,0,27,-30,-23,19,21,-11,-6,14,6,-20,27,-17,-13,37,20,-18,-25,8,-2,-54,-43,0,-38,4,-13,-27,2,-2,-31,24,-27,-7,-18,9,-16,-18,-14,-39,-30,-25,-22,1,3, 41,-33,-4,49,-21,-4,-22,0,-6,-15,-10,3,-43,18,-13,-18,-12,26,-37,29,3,-36,-35,-10,7,-7,-25,-45,-31,56,-53,-8,-5,-18,-35,25,-23,30,-36,11,-13,-15,-20,7,-24,-23,19,-60,40,-47,-7,1,2,12,8,-62,-12,-38,58,0,14,-22,27,-7, -17,-11,7,40,-47,-34,1,8,2,-26,-59,-13,-24,-11,-66,-9,-3,-41,-33,-3,-59,-48,26,-2,25,-5,-4,-1,6,-92,-17,-53,4,-127,-66,-14,-34,-43,-111,20,18,19,-33,-61,18,25,-5,2,34,2,-45,12,75,-42,-6,9,-13,32,-5,-46,-38,-13,-15,12, 
  /* [34][0][][] */ 26,-24,-4,-47,-62,-11,-50,-22,-21,-42,38,-10,-40,-82,9,-8,4,-15,-5,5,-52,-28,-15,-13,21,-69,14,2,-5,-127,-28,-15,33,17,6,-13,-8,-18,-12,21,-14,17,-49,-39,-14,11,30,-9,-14,-40,-25,-25,34,20,-9,4,-31,27,-29,-60,-11,-22,-38,-23, -51,-26,7,-9,23,-32,13,-57,-43,17,-52,-11,-17,-89,3,-39,-22,-50,1,6,-34,-69,-108,33,19,-64,-12,-11,10,-46,-20,-24,20,-4,16,16,-32,-23,35,-32,-31,-20,-8,-78,21,-56,-29,-7,16,-117,-85,4,-3,-44,22,-34,-102,-12,8,-66,-29,-47,8,0, -28,-27,-16,6,8,14,1,-11,7,12,103,4,60,-30,-91,24,-7,13,-6,20,20,-26,-73,39,-33,-20,-34,-16,-41,6,-17,-50,-39,-18,106,-49,-52,-37,-11,4,49,-32,-18,-26,-30,-53,-27,-46,-36,-18,-55,28,-43,-14,-44,-35,-35,-24,-64,7,-53,-23,-46,-30, 
  /* [35][0][][] */ -57,-14,-23,13,-111,15,27,-33,-15,-24,7,27,-40,0,-24,-11,6,4,-17,-23,-1,-8,-30,0,-11,33,-22,17,-16,-17,-28,-5,-26,25,-73,127,-6,26,-30,-36,-16,12,-17,6,-6,-6,9,19,-54,-14,-1,46,-51,37,-21,-24,-12,-44,-35,-34,-30,27,27,-25, -48,9,-32,15,1,-67,-16,9,-9,23,-4,-16,-5,3,-1,-10,10,-4,-37,21,-20,-22,-68,-19,2,-13,21,-5,7,-24,-6,-17,-44,-11,6,16,-16,7,-35,28,-22,-18,-5,-10,-25,-25,-7,-9,19,2,-45,-19,39,-35,-17,-1,-17,-6,-15,-5,-11,3,-21,24, -33,9,27,5,-50,-23,7,-13,21,17,-59,3,6,-35,-19,-32,28,-41,-36,-11,-19,-43,1,-13,26,-16,-21,16,-29,-67,-16,-32,-12,50,-15,-2,11,0,-29,2,6,10,9,10,3,-71,5,36,-41,-38,-23,-17,8,-35,-20,-13,-18,-59,-23,-2,-14,-20,-24,-20, 
  /* [36][0][][] */ -52,106,-30,-102,-17,-45,-19,63,-62,-10,35,-12,-36,53,27,-10,-12,-54,78,46,47,22,-69,-47,-13,-89,-53,-17,71,0,-5,-14,-62,-88,70,5,-66,-45,-2,4,15,1,112,-46,-16,-6,22,1,70,46,-15,-29,37,-17,-12,25,-32,-88,-5,40,-18,-37,77,0, -6,54,-29,-47,-15,42,20,5,20,0,-39,11,-10,36,27,-9,4,-38,14,4,-14,-35,-33,0,1,-4,36,-1,2,17,-6,-29,-36,39,-77,-59,-34,14,-30,-29,71,-23,-33,50,-6,26,6,-21,26,-48,25,63,12,-17,25,-48,-28,69,43,7,24,-19,-73,5, -15,-8,-29,-30,-127,7,-21,16,-3,16,-4,10,-33,-6,-47,-11,-14,-13,-40,-5,21,39,-19,57,-26,35,14,4,29,-16,19,44,16,19,97,-23,-24,26,-37,-6,-1,50,-101,-44,-11,-28,7,15,69,-16,8,0,-19,-29,-14,-10,-18,31,-8,18,-9,-6,-28,26, 
  /* [37][0][][] */ -28,19,11,-38,-13,-33,-18,30,31,13,4,-23,7,-19,50,-31,-13,-11,42,-2,29,14,-26,0,2,73,-6,-35,-34,24,9,18,-31,16,32,-79,19,10,-59,63,-21,-60,-20,-6,-31,-32,-1,-34,-3,-32,-38,14,34,-4,-7,38,-12,-8,22,-34,-31,-21,-25,-1, -61,-42,-44,54,75,-8,-19,24,25,-15,-8,-21,35,-5,-35,15,-4,0,7,-30,-51,-36,-44,33,18,-28,1,-18,-7,-54,18,-35,0,-12,-14,-127,5,39,-18,26,20,-46,-100,-10,15,-23,-9,-36,46,-3,-15,-33,26,-39,-29,-92,-22,-83,-25,-23,-15,-7,1,1, 108,11,-63,-20,-52,1,-12,23,7,12,5,-30,-24,0,-26,-17,-15,-30,42,10,41,7,-10,-48,-8,20,-4,28,69,-28,-4,-68,-5,-16,-49,-14,-58,-31,-10,37,-6,-13,-19,6,-17,10,1,0,-38,-26,14,-38,-46,27,31,9,-51,-50,-19,44,45,-10,5,-15, 
  /* [38][0][][] */ 10,-10,-54,71,-36,-21,9,-31,-47,-30,-27,-14,-33,-3,13,-55,6,-1,-7,12,50,8,-55,7,16,30,40,-87,37,21,34,30,-61,51,37,13,-49,34,-14,-43,2,32,-21,-29,-48,-29,-11,-82,127,-13,-28,-15,13,-20,-21,-90,-74,-63,24,60,-21,-23,8,31, -32,20,-77,-57,116,-17,0,32,42,-17,69,22,-15,-44,-71,-11,14,-60,-79,3,22,-49,-53,-6,13,37,7,-43,-86,-80,-39,-49,-21,-75,29,27,-17,-36,-56,-4,11,-43,-65,-69,35,-100,42,11,115,-29,18,-88,-54,1,-64,-55,-21,-24,-21,28,-11,38,2,23, 17,-17,2,6,91,17,-14,-18,44,-31,-6,35,-74,16,-41,17,40,32,-32,52,9,-9,-18,27,-13,-11,-14,-10,-36,18,-11,14,68,-23,-73,70,5,-13,-16,27,-24,34,-14,18,-61,24,13,-3,66,44,-20,-16,28,-14,-46,-29,-4,-21,42,6,32,-24,-12,27, 
  /* [39][0][][] */ -51,-9,20,-47,-26,3,21,-35,10,-6,-30,-16,-80,0,-12,-38,-37,-15,-14,-1,-8,-37,-55,-27,31,5,-11,20,-5,-45,-7,1,-14,43,-38,1,18,-34,-9,-39,-18,-47,-12,-13,-33,-38,22,-13,5,21,-34,-3,-65,-22,-7,-23,0,4,-6,-44,-37,1,26,-23, -19,-19,13,-15,-40,0,-36,-20,5,20,-127,16,-46,-87,-36,-29,-4,-46,-21,8,-24,-5,-61,21,22,-25,-6,-28,-5,-38,-14,-20,-8,21,-73,-63,-27,-18,16,-33,-46,1,-31,-31,-28,-12,-26,1,-7,-14,-38,3,1,-25,-18,-12,0,-56,10,-5,-6,10,-29,20, 41,-3,-60,-8,-33,-37,2,0,11,-21,20,4,50,10,-26,-41,-20,-16,-25,-6,-11,-1,9,-1,-31,41,32,-15,-23,1,-46,-36,1,71,-11,-7,-9,-24,-58,-2,-27,-54,-70,-27,-17,-47,9,-8,-2,-34,60,-18,-16,-19,18,7,-38,3,-1,-30,-8,-42,-27,0, 
  /* [40][0][][] */ -58,-45,-31,-31,-99,-1,31,18,-12,-29,-37,28,-51,-44,-36,-21,-10,-27,-36,-25,-24,54,6,-57,-6,-44,-1,-17,-4,-51,-42,10,-48,25,-26,6,-65,-55,-3,3,2,-10,16,-77,10,6,-27,30,58,-26,-53,-46,-71,25,-25,-2,-43,-29,-21,31,-35,-36,-28,-46, -127,-8,-26,-123,-33,-17,-25,-23,-28,-23,72,-43,-48,-28,-23,-42,-59,22,-68,33,-11,-64,1,-50,10,-7,-13,-43,-14,-25,39,-9,4,-52,-12,17,-45,-27,20,59,-56,-77,-11,-37,20,-103,-37,-18,25,-16,-33,-2,-51,4,6,29,-45,-61,-52,-14,9,-34,18,-7, -86,24,-17,28,49,-18,-10,-32,11,23,28,23,-40,-32,-48,-46,20,6,-23,-27,-32,-35,23,-40,22,-39,26,10,-14,-100,-29,8,3,-72,-4,-30,31,-33,-16,22,-20,-47,-53,-53,3,-1,22,33,28,-15,-96,-40,4,20,13,-25,-23,-29,-91,-6,-39,34,-46,31, 
  /* [41][0][][] */ -3,29,20,-39,-56,10,-4,27,11,-9,-51,-23,-1,11,-12,45,-8,-45,-11,-17,8,-31,-29,71,-19,33,18,-69,-16,-5,-11,17,14,18,-25,9,-5,24,-49,-24,72,15,-107,-41,-32,-88,4,-50,40,-13,8,3,-6,-3,18,-13,-12,-22,25,-6,8,-3,-11,-10, -73,28,-33,23,40,23,8,1,-16,3,20,-7,16,-34,-72,23,19,-60,-26,-12,12,-53,-3,10,12,-12,-2,-34,-56,-31,-37,-9,-30,-16,20,37,2,9,9,-1,-76,-9,-29,-28,-24,-48,-2,4,19,67,0,-29,43,31,-32,29,-34,36,-32,-37,-30,-2,-31,5, 37,-90,-58,-42,127,-28,0,-18,-28,-20,-63,-8,-70,35,-25,38,14,-5,-77,-15,21,-102,-35,-100,-3,10,-5,9,18,27,49,17,-38,-13,-9,53,-36,28,-24,-21,10,81,-63,34,-17,45,-4,-21,118,27,71,10,-27,52,-24,6,-34,8,99,20,-1,-4,-32,17, 
  /* [42][0][][] */ 9,-3,-43,-41,-40,-65,14,-42,12,-37,36,31,-28,33,24,7,2,-34,-1,-28,6,26,-46,-43,-12,25,8,14,31,-28,-40,-73,-67,12,-61,-17,-19,23,30,-43,-33,-22,-98,-5,-17,-71,65,-27,29,-4,-48,-23,-57,19,5,-19,-46,-45,-1,23,-40,-47,35,-6, -28,-14,-15,-63,36,-67,39,-34,-31,-58,-11,3,-12,-94,-31,28,33,-50,-5,25,-26,2,-43,21,41,-25,-60,-72,-57,-67,1,-93,-28,-74,-3,-8,-9,11,-127,-57,21,-41,-6,-3,-17,-67,24,-62,-18,-5,-24,-34,-79,24,-53,-61,-82,48,14,-109,-78,-16,13,16, -87,-4,-57,16,36,-25,-53,-44,-29,-11,-5,-3,-57,-102,22,-49,37,37,12,41,-18,16,-37,-27,-62,-18,55,-24,-24,-4,-22,-1,-31,-50,-39,-27,-40,-34,-35,15,-20,-41,-5,-62,-3,-17,39,-1,-65,14,0,-64,-39,-17,-44,23,-70,-10,-42,23,-27,-37,6,36, 
  /* [43][0][][] */ -83,2,33,73,-54,18,-1,1,63,2,-24,32,-18,34,7,71,-21,51,6,6,-42,-8,-10,99,28,31,44,-63,-76,0,21,7,72,-22,-8,-33,-22,20,62,64,7,9,-31,-63,-8,-45,3,-14,-5,4,-18,54,-4,-46,-58,-63,-31,127,-25,6,18,2,-46,13, 21,68,-52,12,-46,1,-6,7,-1,16,11,-29,-60,24,7,49,-68,-110,16,18,22,-53,-54,-12,-13,17,20,-9,21,32,15,-11,-41,-54,24,-55,-27,44,-45,72,61,-53,-53,-32,-12,-71,-23,-12,118,50,43,-26,17,62,0,-45,-75,12,41,-11,48,-32,-15,-5, 86,28,5,6,110,-43,21,27,39,-24,54,-32,-3,54,-5,64,23,-49,3,-22,-4,-89,-40,-14,-27,9,20,-53,-13,36,27,-5,31,-8,-18,-16,15,-50,5,-41,14,102,-96,-4,2,17,-7,12,13,-17,116,9,16,-53,-27,-61,-25,-31,42,8,26,-23,-52,9, 
  /* [44][0][][] */ 57,-5,-26,98,-39,-44,-22,11,-70,7,-42,-20,-19,12,-25,-82,6,-55,8,-11,-40,-45,22,-35,-11,27,20,-30,-43,-37,-15,-62,41,2,-28,9,-39,26,11,-29,-43,-91,-80,11,11,-28,12,-54,12,-26,17,-48,5,-28,-48,43,-16,57,6,22,-2,10,17,20, 29,47,-10,53,48,9,7,52,-6,-1,24,-4,64,-21,-63,-27,30,-19,-23,-1,-27,-32,19,-75,44,16,-53,-44,-2,7,-46,-47,-96,-20,52,1,-11,16,-71,-19,27,-64,-127,-16,-13,-35,11,-19,-21,-7,32,-6,63,-68,-41,45,10,21,-69,16,13,6,50,-10, -37,107,-18,83,72,-50,-2,-24,-16,7,60,-9,3,-44,-42,-91,-7,-41,30,4,40,16,59,-13,-3,-66,24,-31,-69,-28,-8,-37,47,-44,-9,10,-54,-42,-65,-28,18,-25,40,22,-4,36,44,-26,11,-63,12,-19,45,-13,-15,3,7,23,36,-11,15,17,-19,-4, 
  /* [45][0][][] */ -8,18,18,-28,3,9,8,53,-9,-21,67,-6,-13,10,14,67,-2,-22,-38,-19,22,-25,-33,-68,25,56,3,-19,-36,-46,-27,29,37,66,27,-31,-4,40,-124,16,13,-29,-20,-16,-4,2,33,-25,-7,6,52,69,-15,37,-33,-84,-4,-83,45,-16,13,11,127,-11, -23,-19,-14,-29,-38,-45,19,-36,-16,10,-30,23,-46,1,-20,32,18,-14,-47,13,32,14,-47,12,-5,12,3,7,-54,-47,-13,-13,-16,-107,38,-29,-25,-11,-58,-52,10,12,-62,-27,-18,-29,8,-23,2,4,40,25,-38,4,-48,-53,16,-89,47,-48,-36,-11,2,-9, -3,-18,-13,-18,-45,-4,9,-7,22,11,74,22,-3,31,19,12,40,44,-18,-49,42,-23,-35,-23,-24,63,-40,-13,-2,-4,0,19,-4,-34,-25,12,-24,66,-56,5,19,-71,3,-24,-11,-69,-2,-3,-33,22,-2,11,-6,9,-45,-26,-43,-78,-8,0,26,-42,-41,5, 
  /* [46][0][][] */ -1,13,-40,-75,-24,-78,13,-127,-34,-110,-51,-114,33,-4,-86,-70,6,-54,42,-3,-106,-15,-9,14,-89,-52,11,-88,-58,9,-77,-122,-79,66,-54,-15,-48,-127,-38,42,22,-24,-4,-36,-5,-77,-44,-38,-62,-67,41,-72,-5,-28,-34,-63,5,-26,-95,-114,5,-2,-100,21, -69,52,-54,-81,-48,7,27,-78,25,-115,-70,-33,-105,-126,51,-71,3,-100,61,-62,-17,35,58,62,61,-70,-78,17,-50,32,21,-104,1,-9,-113,-57,-88,-74,-100,-46,-119,48,-99,-83,-96,-102,-37,47,45,-97,-121,40,48,-5,63,32,-94,-57,-52,-79,-18,53,23,-63, -64,-57,-45,-127,-39,-115,-103,-43,20,-90,55,55,-26,-70,-22,6,10,10,7,-63,-125,8,32,-116,-83,24,49,-10,-21,-38,-26,-121,-12,43,33,73,-5,-109,32,43,-77,49,51,-122,-12,-49,-89,-98,-65,-45,-64,18,11,64,-46,-24,-116,-87,5,-88,-61,45,-83,-67, 
  /* [47][0][][] */ -6,-26,27,16,-25,-17,6,-9,29,11,-12,9,-14,-14,-8,1,11,-78,16,28,-20,40,32,-11,8,-44,48,21,24,-50,-3,14,-12,26,0,32,18,-39,13,-24,39,-58,44,3,10,-4,-20,36,-22,9,5,12,-11,-18,2,9,24,20,3,7,39,7,-29,11, -17,-3,18,18,-50,-45,10,22,17,12,-60,34,-43,-37,-74,-44,35,-48,-56,-11,-65,-14,16,123,4,11,-12,-23,6,-41,-1,3,33,67,95,-13,-18,-23,-1,8,-4,-56,-80,26,-60,-14,2,28,127,-17,-49,-47,-20,-13,-16,-27,16,67,-1,-18,-46,-9,-12,12, -42,15,-17,-28,-78,2,3,26,36,8,15,-11,11,-2,-21,-30,-11,10,-4,-8,-18,-15,-23,-30,14,-14,26,-16,-28,21,-7,-38,-13,-81,9,15,-37,-55,-5,-28,-82,1,-18,-40,-35,-28,-4,8,46,-2,3,4,1,13,-3,1,-12,-2,-67,-54,-42,18,-11,-3, 
  /* [48][0][][] */ -78,-33,0,-20,15,17,7,-8,10,-25,-110,-1,-33,-21,-2,14,-29,-7,-21,-4,16,30,-28,3,-14,16,-18,-25,-15,34,-23,-22,-29,28,17,-36,-6,-24,15,-23,-31,-22,-8,-59,-20,-31,-13,17,-7,-1,-44,7,-20,-16,-2,-18,16,-16,3,-21,-26,6,10,8, 58,-1,-33,-34,-9,-27,-1,-37,8,-3,-127,-26,-9,-49,0,2,6,6,-3,-19,3,-1,9,-6,-2,2,-17,-13,7,10,-31,-30,-15,-15,9,-25,-9,-9,-21,-5,-54,-17,-41,-17,-7,-25,11,-33,16,-27,-52,-21,-12,-11,1,-31,-6,-52,-28,-26,3,18,-16,12, 26,-32,-32,18,-34,17,-4,-30,0,-7,-41,7,-20,-21,-36,-7,4,-6,-18,12,-9,14,31,17,-23,0,-2,-20,0,8,7,-28,8,50,-6,6,-28,-24,21,-47,4,-12,0,-44,-36,28,13,-8,-17,53,-45,-22,2,-10,-8,17,-13,2,-67,-72,-32,12,4,-10, 
  /* [49][0][][] */ 0,-38,24,-37,-33,-15,-10,16,34,-12,-34,45,43,-5,20,32,-14,23,-49,-33,-4,27,15,-1,-18,-30,12,-19,-17,-4,-22,32,2,-51,10,4,51,-15,35,-36,-25,-54,-33,8,29,-53,-3,-19,64,-59,-4,-11,-8,-46,4,-11,17,52,5,-55,-22,2,-60,28, 47,-89,8,55,-12,32,-20,-35,-26,25,-61,36,-4,-43,-46,58,-12,-7,-54,-33,6,-50,70,-109,-2,84,53,17,-38,-9,11,-10,91,24,28,45,36,19,61,-37,-62,-3,-4,76,-51,-2,-9,41,-24,42,-83,25,30,-37,-32,55,33,23,45,-5,-15,26,24,-16, -56,-78,-5,-3,-33,-26,-4,-31,-27,3,-13,-23,4,-40,-30,-97,34,-57,-40,28,-50,31,72,-54,18,-20,-13,-18,-127,-65,-10,-14,8,-73,-69,44,-4,-64,31,9,19,-65,-107,-34,2,35,-31,35,32,-44,-54,-22,62,-73,-14,49,24,-29,-73,-34,-22,-16,-26,-24, 
  /* [50][0][][] */ 10,26,-3,24,-108,-25,24,37,17,22,-68,11,9,15,18,-32,-34,1,39,-25,-8,-6,-16,-84,0,23,-4,-37,-3,32,-78,32,-43,-85,46,21,5,35,37,1,-72,1,-3,9,-16,-46,3,-37,-13,-40,4,-26,-28,-13,-5,22,-23,57,-27,-24,-22,-10,-1,13, 10,-6,-26,17,-109,-9,20,67,-35,23,54,14,-12,8,-46,25,-52,10,-10,-7,54,-37,19,-26,23,-3,-12,21,17,17,-12,-10,-42,-30,-42,6,-29,-12,-9,-8,37,2,-10,-66,-5,-42,-21,11,22,9,-67,7,43,-33,-27,-3,-47,35,-11,20,18,-59,33,10, -46,72,-49,-39,-74,-75,-16,-21,-4,-26,98,-36,31,-46,-39,-36,1,-34,45,5,14,18,-47,-19,47,-54,-15,19,83,-72,-23,-92,-67,4,-38,0,-85,-49,76,12,53,-60,32,-102,12,0,-14,35,-20,-67,-40,0,77,-17,17,17,-21,127,-86,-15,-67,31,62,9, 
  /* [51][0][][] */ 17,33,35,-27,-28,-5,-12,-29,-18,19,-64,-4,24,22,25,-5,20,-58,5,6,-49,11,38,-85,-21,15,-38,35,8,-41,5,12,-32,-51,-116,-5,18,-29,72,-38,59,-42,-11,-8,-2,15,-18,89,-89,-28,21,-5,13,-33,21,3,-34,-29,20,11,25,46,-20,24, -16,-31,6,19,-115,-5,-7,-7,-26,-17,47,-1,16,-7,-16,4,12,-36,-42,62,-67,11,17,-19,-52,54,16,-14,55,15,-75,38,20,119,-70,36,41,41,34,-17,-27,-54,-126,17,-9,41,12,-1,-90,-40,-37,61,-23,-38,17,-14,12,-23,21,-49,-15,-20,62,0, -23,-45,-2,32,-127,-42,4,8,7,-32,-39,-38,-2,-6,-62,-37,-24,-38,-53,-15,-115,-67,-11,34,27,-33,34,-44,-66,-90,87,-61,6,-96,-30,-43,-74,-24,48,126,20,40,-88,-69,27,-32,-6,49,115,-29,-67,-43,20,-3,-24,64,-57,-88,-43,-95,18,2,-2,-3, 
  /* [52][0][][] */ 49,-42,-21,8,20,-24,-15,5,50,-4,-63,-22,-8,15,32,8,-1,-22,-15,0,-30,-42,-23,8,17,10,18,-21,-35,24,-35,9,41,-12,-32,-7,13,13,-9,23,-33,-47,-23,-13,-10,-30,-8,-4,2,-37,34,46,-41,1,14,-26,3,38,-39,-8,14,15,34,21, 42,-36,-11,58,-33,-10,-6,19,-29,-2,-17,1,-81,43,-32,32,-13,-46,-24,-7,29,-66,-35,-17,5,40,24,-63,-24,20,-19,6,-17,2,18,-14,-2,96,-34,-36,-31,7,-69,-51,-22,-27,18,-10,72,0,5,34,-15,-18,-4,-56,-30,-31,57,-15,-10,12,-1,9, -61,7,-67,15,-119,-42,7,5,-8,-23,74,-19,9,-46,-31,-71,5,-69,-8,4,-6,-47,-11,-34,9,-37,-51,-35,10,13,-6,-35,-12,-127,15,-19,-54,-6,-34,40,-19,-8,-49,-70,-29,36,2,31,38,-6,-58,5,55,11,-9,-16,-55,103,-66,-51,-48,10,-31,7, 
  /* [53][0][][] */ -16,28,-6,-2,19,-60,-3,-16,44,-7,-11,3,-19,4,9,-35,-36,24,-55,9,-27,0,13,127,-9,-125,57,4,-5,4,3,-30,-20,64,2,-18,14,-1,9,35,-21,-25,-43,-12,-1,-22,-9,-18,-1,-74,-10,-19,-10,34,-31,-24,-9,92,20,38,18,-13,50,23, 34,-31,-24,-47,-46,-1,5,-20,-55,11,-50,5,-52,3,-53,36,-7,-56,-23,-7,53,-61,-1,-10,8,-24,11,17,48,36,-11,-41,-24,-31,-57,2,-9,-57,-15,-3,-25,40,22,-64,-44,-56,-16,-2,29,56,-45,-24,3,7,-57,-46,-33,55,-48,30,-4,-6,50,9, 20,4,34,32,4,-3,5,3,27,-16,59,-16,16,-8,26,-5,-13,31,-27,19,-11,-46,-11,-22,12,-16,41,35,57,41,85,-2,-31,-60,21,-24,-24,-31,67,-5,30,-44,24,-4,46,-83,-19,43,-59,-14,32,-2,-46,-4,-34,2,-6,38,26,13,3,9,11,-24, 
  /* [54][0][][] */ -43,-77,14,-38,1,-36,-23,-2,71,16,41,-37,6,-52,-11,-70,10,7,-52,-36,-56,13,-51,14,16,-27,-43,-38,-18,-80,-72,-10,38,-39,39,54,-13,-49,19,-9,58,0,-125,34,22,9,-6,-40,-12,-113,-2,-28,-10,51,-3,17,41,-23,-27,-50,-29,11,50,27, -90,-26,7,-57,-39,-47,3,-41,55,-16,-46,12,20,-36,8,-74,5,83,-51,-16,-63,12,12,18,-7,-8,-1,-17,-15,-49,10,-5,-23,-4,55,19,-13,-49,44,-40,-69,-17,-62,17,31,39,17,55,32,30,-67,-42,14,1,-57,38,20,38,-49,-73,-5,14,-43,-7, -85,-52,50,-47,78,10,7,-29,11,-13,-24,32,46,-19,-80,-47,4,-16,-24,-31,-68,36,59,-39,11,37,-9,3,-43,-45,-22,-15,-16,8,43,-1,42,-37,-3,-46,61,6,-20,-4,13,-51,19,-19,-51,-100,-37,-20,1,34,52,-37,39,-70,-56,-127,4,-9,-8,22, 
  /* [55][0][][] */ -61,17,-49,-2,95,2,20,-9,66,-9,0,49,-35,-4,28,56,-1,65,-31,-12,-24,-10,-42,-4,5,1,7,-44,19,40,-20,29,5,-69,-75,30,12,19,-22,-6,-23,23,-1,37,14,8,0,-3,69,10,73,124,-27,11,-26,-8,15,7,72,-15,-15,-24,-27,11, -45,-77,-25,-83,-11,-44,-13,-27,-19,8,-54,-18,-46,-52,-67,-18,14,50,-19,-44,17,35,-22,25,11,13,12,17,-26,-76,-66,-14,5,-34,23,-12,-62,-14,40,-96,2,19,-1,-9,-65,32,-18,46,-10,-71,-79,-5,4,20,-1,29,-10,32,-2,-1,-56,11,-24,-19, -19,-74,-52,-28,-2,-42,-16,4,6,10,-42,-26,-51,2,19,-7,42,-7,56,16,28,-29,-54,11,-9,-12,11,-26,56,-41,-28,-10,-20,52,-85,-31,-40,-60,32,-70,51,-47,-12,34,8,-64,23,-32,-127,-3,19,-10,-59,-10,93,-37,6,31,16,55,-62,-41,-39,-9, 
  /* [56][0][][] */ 31,-6,-16,17,-18,10,-2,51,-35,-4,10,-41,-13,30,8,-2,-13,-37,-1,-2,20,-44,-43,-9,-2,43,0,-36,19,21,-2,4,-6,-15,-40,8,-23,2,-58,25,-25,-11,-9,-39,2,-40,2,-72,34,16,33,-2,1,-7,9,0,-24,37,-5,5,9,-35,127,-9, 15,-13,-15,-18,18,31,10,31,17,-15,-8,7,-32,9,0,8,-13,-38,-34,11,-7,-26,-40,22,-4,-26,36,-37,-7,-7,-4,-17,57,-25,-30,3,-10,5,-41,-5,-29,-49,-49,-19,-20,-30,23,-4,33,-7,34,-3,-16,-5,-17,-6,-11,29,20,-17,1,-41,-8,26, 19,-29,-4,7,-14,-18,5,38,24,-5,4,0,-33,38,9,-28,-2,32,-10,16,-20,-20,-33,-11,-3,35,9,-36,40,34,-27,26,-5,-65,52,-2,-12,68,-48,17,2,2,-76,-23,0,0,-6,-48,30,-21,13,55,-9,-22,-50,-36,6,-7,44,-57,20,-19,-11,9, 
  /* [57][0][][] */ -49,-12,-13,28,-57,4,-17,21,0,24,-31,11,-14,-17,-29,10,-2,-26,-14,10,-6,23,-33,-7,7,127,55,-68,-10,-37,-31,-48,-10,79,31,23,-5,13,7,74,-23,-55,-37,8,-18,25,-14,-15,-27,-48,-22,36,-12,24,-16,-39,5,30,-15,-14,-10,-29,15,-7, 21,-14,-15,6,-7,32,-13,-10,-2,11,-32,-14,-15,-29,-19,2,-9,-16,-3,14,-2,5,-2,24,-28,8,-17,47,-76,-20,15,-9,10,-50,-9,-19,18,-22,-4,44,-39,70,-3,-13,-23,-55,4,5,-11,13,-13,-21,12,-61,-16,36,-17,-1,-7,40,4,-8,-6,-16, -9,-26,-27,3,41,-8,0,-11,-29,-10,-9,-19,-13,-10,-25,-8,-3,-11,-4,-3,-17,-46,-43,-66,-8,-53,-28,14,10,-20,-17,-40,-14,-40,10,8,-23,-35,32,8,-6,-24,-20,-51,-2,-19,-14,10,11,-15,12,-13,33,-33,1,3,-8,-23,-2,8,11,7,11,5, 
  /* [58][0][][] */ -44,-11,-15,-13,-29,4,9,-23,-13,9,-74,15,-19,-64,-33,-20,27,-8,-3,-16,-19,1,-57,17,-9,-62,-8,-17,14,-23,0,-17,-19,-20,-1,-91,-37,-38,-54,-18,-14,-3,-31,-32,5,-85,20,4,2,-20,-66,-45,3,15,13,-30,-14,-51,-20,-9,-37,-10,17,22, -35,-42,-29,-29,-2,-9,12,-18,54,-16,-75,20,14,-48,-55,-16,-14,53,-38,14,-13,-10,13,-18,20,-1,-20,12,1,-8,45,3,2,52,48,32,-27,-60,34,7,-78,4,-5,16,26,-7,-15,20,-12,-54,-33,-15,-8,-29,4,47,-12,-5,-27,-40,-7,33,-13,1, -87,11,28,16,49,-12,-5,-55,-9,0,33,24,-19,-34,1,-61,6,50,-35,-22,-42,-33,5,-69,25,-18,-29,5,20,25,-17,-45,-45,-116,39,38,12,8,28,-21,-54,46,-127,19,-30,-21,15,-5,50,5,-19,-45,-11,-10,-21,16,-3,-3,5,-35,-25,32,-4,22, 
  /* [59][0][][] */ -87,-16,-5,-107,-74,-18,13,-49,-45,-1,20,-13,-28,-50,17,23,-12,-56,-20,-18,-15,46,-19,-55,24,-10,3,-24,-47,-30,-21,5,-13,-5,-23,-6,17,-5,-30,61,-97,-55,-26,-14,-26,32,-16,-13,-43,15,-25,-76,-71,-27,29,23,6,28,-55,-56,7,-14,14,22, -69,-53,23,-63,-38,-31,-13,-58,24,5,-34,21,-10,-56,-5,-62,-37,12,-51,15,-95,38,49,-50,-24,-56,11,-4,-18,7,-26,-31,-40,119,-16,19,18,-62,15,-80,-71,-5,38,4,40,13,16,18,47,-4,6,-32,-31,-36,49,-17,11,37,-16,-19,15,-4,-35,-32, -42,-18,22,-114,-126,-65,-8,-6,70,29,-86,31,23,-32,-55,-65,4,-19,-40,-13,-96,20,40,89,-4,-1,4,-33,36,-19,-6,-7,-75,46,21,46,-17,-73,-34,-13,-23,-52,-89,51,-6,60,-9,10,44,-127,-72,-34,0,-9,27,58,36,-33,-64,-42,-31,1,27,-5, 
  /* [60][0][][] */ 12,-42,-7,-83,85,-63,-17,-15,-25,-3,-60,-2,-27,43,15,-51,-20,21,-85,13,-5,-16,7,-33,-28,-9,11,-20,15,-15,-53,63,-26,67,107,13,10,48,12,-54,-58,101,-39,53,-8,-23,-12,-80,119,15,8,-40,-44,-8,-30,-42,15,87,86,20,-12,9,-49,16, -29,-93,-48,-49,-52,-9,27,-28,-89,-10,-49,45,-87,27,11,55,11,-10,70,-58,43,6,-87,6,-8,-50,0,33,-3,-2,2,16,-52,-45,-39,-21,-47,10,84,-54,-43,-13,127,-101,-7,-43,-11,29,-82,47,-53,18,-65,-24,-22,16,-3,123,18,63,-47,27,-103,20, 18,-38,-17,16,-54,17,-34,36,-4,22,-38,-29,-86,39,-4,16,-37,-5,7,69,-5,8,-22,-16,-10,-21,24,35,-89,10,22,11,16,-87,-9,5,-4,-56,16,-3,-56,51,-29,-44,-6,-72,20,-19,14,31,56,82,-5,-33,-53,-11,-62,61,-20,-6,-2,-22,47,21, 
  /* [61][0][][] */ -18,64,19,-74,-98,-40,20,-7,41,-5,61,20,-36,-57,-50,-56,25,34,9,48,-11,-59,18,82,9,-18,-19,-51,30,-64,-64,-75,6,-7,127,26,-29,-58,27,13,125,-45,-23,-75,-4,2,27,22,57,-33,-50,-73,-57,-6,-66,-8,-65,48,-101,-13,-87,-8,-17,19, -6,22,-96,-48,-4,-27,8,-9,-63,-30,10,-5,-2,-63,-53,16,-25,-49,-13,23,-31,-22,-45,27,-22,-6,-5,35,62,-41,1,-18,7,-25,-28,31,-48,-48,7,29,-37,-45,-27,-44,-20,-16,-40,0,-11,2,-14,-25,-31,-8,-36,22,-31,-2,-43,-61,-38,-31,-30,-25, -41,4,-54,-6,-14,-28,-10,0,19,-34,37,3,-71,-31,-6,-6,34,0,-46,30,6,-55,-29,-19,15,-25,22,-44,31,-30,-39,-30,3,-16,-9,-19,-23,-55,-2,-51,-9,10,16,4,3,-63,13,-44,-20,-36,24,4,-38,-5,-6,19,-12,37,-53,-37,1,1,-3,-28, 
  /* [62][0][][] */ -32,-26,28,-7,-39,-40,4,-17,97,9,-72,25,9,7,41,-4,-22,14,-72,-25,29,-24,-67,18,-37,-2,-49,-43,-22,13,-50,13,5,62,-47,-1,23,56,-74,-2,-24,-3,-47,-27,-15,-66,-4,-9,48,-19,-31,75,8,13,-26,-31,19,-41,9,-61,3,-2,-49,36, -9,-32,-35,-69,54,-18,26,11,-5,-25,77,4,-32,-22,-20,83,24,23,-9,-26,8,6,-58,1,-11,-15,-15,-1,-77,-18,11,-20,55,-20,-4,-61,-36,-58,10,20,59,37,27,-27,13,-66,13,-12,-22,50,-3,0,-75,-22,-4,-53,-21,-83,-7,14,-2,-5,-16,14, 14,1,-54,13,22,-25,-11,-85,-44,9,-24,9,-53,23,-53,-2,60,-26,2,2,40,-20,-62,-55,-28,-59,1,49,124,-45,29,-23,86,-127,63,9,10,3,103,67,69,-14,14,4,-37,-20,8,69,97,-24,30,5,-40,-47,-19,51,-46,54,-1,53,31,23,-21,-28, 
  /* [63][0][][] */ -62,-75,9,-73,-8,-7,19,17,22,5,13,-16,45,-27,40,-52,-11,43,2,16,-25,-36,-27,-11,-3,-49,-44,-54,28,-9,52,41,-7,90,127,-37,6,-14,31,-17,-27,-8,-100,30,6,-122,10,0,1,-28,-9,-50,-36,35,48,-10,59,47,-47,-5,27,35,-2,-10, -20,-10,56,43,38,23,21,36,40,13,46,31,6,-12,13,55,-34,74,-26,17,-48,-51,-26,-18,-2,49,57,58,25,-57,-27,4,19,-51,83,16,26,36,1,17,-39,-29,2,7,-17,-77,-14,14,31,35,-45,45,68,108,-20,17,7,46,-16,-7,-24,-8,38,24, -49,30,-22,-13,1,9,-12,-10,-31,-16,78,-8,8,-20,6,-20,4,-51,4,29,-61,3,45,-26,2,-85,-6,-14,-14,-27,-60,3,-37,-12,-105,-81,-12,-33,-62,-28,81,-15,-55,22,-7,-51,-20,-35,1,12,-13,4,18,1,25,-40,10,51,-42,-101,19,-3,-36,-9, 
  /* [64][0][][] */ -100,-52,-44,-85,-48,-71,-17,11,-16,-13,-45,14,-36,-18,19,-31,7,-1,-32,-5,-18,-47,-106,-30,-8,-96,-5,-31,0,-25,-43,-36,-10,-127,15,-24,-24,-83,-14,70,-45,-44,-1,-54,-21,-21,6,-12,40,-4,-69,35,-77,31,-6,-35,-57,-20,-52,-34,-49,-2,2,-24, 3,42,17,-70,-7,-40,-12,-8,-4,10,-47,27,-31,18,-5,-39,-27,24,20,6,-20,-65,-49,46,3,8,-44,-64,-16,10,-37,-9,1,-29,-20,-5,-19,-1,-99,2,41,-109,15,-13,-32,18,2,-1,-1,-7,15,30,-78,-24,1,-62,-35,-63,-23,-116,1,11,-36,4, -5,-11,-1,-42,-99,1,0,-47,-13,-20,-70,-13,-41,-1,-44,-23,-11,-60,-11,16,-37,-10,8,26,-24,62,11,-19,-87,22,-25,39,-6,-23,-28,15,1,25,-46,34,23,-33,-73,-48,-10,-27,4,-38,6,-74,-10,20,-32,14,-44,-55,-7,-76,14,-26,22,8,-11,-9, 
  /* [65][0][][] */ 10,-59,36,-69,16,-58,42,-57,-65,14,-37,29,-31,-46,-5,-55,-8,-9,-33,4,17,-16,-58,-47,34,22,56,-16,-49,-32,30,6,-63,23,17,25,-30,11,-20,37,46,-68,6,-107,-83,-86,-66,6,14,33,-54,31,-26,-36,-46,-31,-5,-51,-127,-55,-106,-44,-68,-66, -4,28,-59,-79,-83,28,-41,-85,-73,2,3,-39,-64,-68,2,-21,-18,-27,-36,-39,13,-70,-47,10,47,-15,-31,46,-4,-54,-60,-2,-64,-82,-30,62,2,-80,-40,47,13,-61,-67,-33,-78,-37,7,-72,-86,37,-20,-22,-64,23,20,-47,-18,18,-27,-25,-77,22,-20,-13, 12,-42,-63,-59,-28,-32,-53,-5,16,-37,53,-49,-47,-4,-65,-9,-21,29,-29,4,-10,15,-67,56,-38,-7,64,24,2,-75,-70,-64,-14,47,25,48,2,-44,33,38,-26,-71,-29,-7,5,-79,18,12,-71,25,-85,2,-31,-63,-58,-10,-72,-43,34,12,28,-1,29,-73, 
  /* [66][0][][] */ 16,-17,-26,-18,18,-2,6,-10,6,-5,-30,17,-5,-39,14,-21,-11,-19,-39,-5,-35,0,14,-15,-15,8,1,13,-11,11,5,-30,15,-28,15,7,-14,-25,-12,55,-49,-17,-22,-29,-23,-22,16,-10,-8,-13,-27,-30,-46,1,8,22,-34,-19,-56,25,-8,-8,5,0, -1,-38,-22,-74,-27,-37,12,18,-10,-17,-43,-24,-5,-14,-19,10,3,9,-18,-65,-20,-47,-8,-17,9,-34,41,19,-15,5,-10,-47,-33,-61,-20,-113,-2,-35,-24,-24,16,-47,36,-42,-30,-7,1,15,-25,-21,-48,-9,-17,18,-13,-35,4,-26,-34,30,-39,-3,-19,12, 17,-25,11,-33,43,15,-14,0,3,-6,-113,-24,-45,-45,17,5,-16,27,5,6,-6,-39,-43,34,-14,-46,33,-34,-27,-25,-67,-28,18,-13,-31,-127,5,-21,32,-18,-58,-13,-12,-9,-19,-73,-26,-20,-34,-32,38,26,-13,15,-1,-23,-56,-34,17,-29,-16,-27,12,16, 
  /* [67][0][][] */ -3,-127,-106,-21,84,-54,25,-29,20,-6,-27,-10,-54,-41,-87,-89,24,-65,-113,-21,-96,-51,-43,19,23,-23,6,20,0,-13,-40,-32,-1,47,-53,-5,-72,-22,23,11,-17,-45,-105,-13,98,2,5,-76,-81,-39,-18,-53,-38,46,-31,-16,-64,-1,-13,-35,8,-9,-11,24, -41,-57,-72,-4,-74,-17,-44,106,12,13,-76,15,-35,-82,0,98,23,-15,19,0,6,6,-105,17,-6,-32,19,-38,21,-115,33,-5,-19,-58,72,4,-28,-10,-42,32,22,27,86,17,-23,-76,25,-82,53,-11,-2,69,-5,8,67,11,-121,-25,21,25,-35,31,29,-13, -25,26,-110,-61,-78,-36,-28,-27,9,-27,-29,-11,-45,-85,-51,-65,-6,-1,-55,-24,-61,-68,-56,31,-5,-40,-10,-9,-18,-72,-8,-48,-20,-17,-94,-14,-89,-40,-53,-36,31,-38,-75,-72,-66,-71,-31,-35,-22,-54,-54,4,-6,-8,-8,-80,-83,30,-42,-20,9,-2,-29,-12, 
  /* [68][0][][] */ 48,-42,-36,85,26,-18,-1,25,-11,22,-53,1,-24,-24,-24,-29,-9,-60,-49,-22,-33,-47,28,-37,25,-43,5,-10,9,-15,-8,-79,-4,0,47,10,-5,28,29,-7,-49,-11,-88,26,-30,-61,23,-25,-17,-7,11,-27,-24,-49,9,41,-13,98,-28,-18,-3,-27,-6,-8, 12,-39,2,112,73,-15,-5,-3,-20,24,-56,15,-60,-41,-94,-13,15,-71,-41,-44,-6,-48,15,-68,9,12,27,-65,-45,10,21,-32,-28,-82,-3,44,1,27,-38,-67,42,-71,-127,-27,-59,-52,-26,-8,60,36,-14,-44,25,-65,-4,-47,-29,45,-3,-14,10,-29,-8,3, -28,25,-47,-17,0,9,-24,51,-52,-19,36,6,12,-9,-73,-14,43,-29,23,12,11,35,-9,-105,-6,-46,7,-22,-84,7,-15,-20,-49,-79,-74,9,-57,-21,-44,-6,35,22,28,-27,29,78,1,30,75,-2,-13,-10,121,33,2,-7,-15,90,56,-54,-27,-11,3,9, 
  /* [69][0][][] */ -109,107,14,37,119,-21,25,-22,-55,-28,24,61,53,-12,-103,-109,1,27,35,-1,-41,60,55,-54,1,-18,-63,-10,52,-56,-70,-46,-56,-105,-59,75,-34,17,-99,42,-7,32,-6,-61,25,8,3,-20,95,-24,2,-35,44,-37,-38,-73,3,48,8,-98,1,25,14,-9, -106,-27,11,-83,54,-66,11,-7,-49,16,-66,-36,47,-65,-19,-14,10,20,-44,32,-27,82,7,38,28,-63,-47,-31,14,21,-47,-69,-28,-67,107,18,-68,-57,-19,0,78,26,60,74,70,120,4,-11,102,11,-61,16,5,-8,34,27,3,21,10,-91,-45,-8,-43,8, -42,-64,-16,-44,-31,-9,23,-27,27,-9,-127,8,-54,-44,42,-2,39,-31,43,50,62,21,4,10,22,-44,30,-58,50,-5,-86,-19,8,43,2,-20,-50,-99,22,-35,13,-51,18,16,-17,-35,4,-57,-108,-75,16,-67,-1,8,-6,-9,-33,-70,-34,45,-39,4,14,6, 
  /* [70][0][][] */ 5,45,-25,19,17,-16,-1,-4,14,11,72,-8,-5,43,31,-3,-52,25,-10,-16,-14,-6,-18,-40,19,-4,5,4,7,-24,43,-18,41,-29,-38,-26,0,-22,108,19,32,10,-24,-57,19,-26,-6,63,35,-15,10,31,-36,-29,-13,27,-47,-60,-22,18,21,0,34,-2, -54,-30,4,-59,-70,-29,14,-73,47,2,5,-47,0,-55,35,-1,-11,2,-45,-54,-13,-56,-51,-15,4,-37,19,-13,-56,-41,-24,-11,45,-34,-33,3,-22,-54,-76,8,-28,-65,34,13,0,-15,-20,-2,-52,28,-11,-27,-36,-49,-9,-21,13,-8,-23,-48,-7,9,41,-1, -41,-10,41,-32,-33,-2,30,-34,-16,4,81,-17,-2,50,30,8,-20,17,-29,3,-12,-49,-28,99,4,26,2,1,33,1,-22,50,52,-127,20,-8,47,33,-35,45,42,-22,-93,-19,23,-75,39,-45,2,-29,9,95,-34,54,13,-32,-20,13,-43,-53,56,3,-8,13, 
  /* [71][0][][] */ -89,19,-67,20,-10,17,29,-26,-80,41,-59,-40,26,-50,2,-49,33,38,6,44,-64,-29,-51,-74,-32,1,-47,-28,14,-71,-38,-34,11,-72,40,-42,-5,-82,38,-33,-40,-67,-26,-18,44,-60,-8,-39,5,-83,-127,-19,18,-10,45,-49,30,-45,18,-35,11,-37,-4,4, -126,48,-37,-28,-16,12,-64,8,-29,-41,20,24,-42,-7,17,27,43,-21,-56,48,8,-45,-67,40,-10,-46,14,7,20,-30,-20,-20,15,-5,-24,34,30,-15,-15,-51,6,33,-24,-114,-71,-24,39,-58,11,-43,-75,-63,32,-9,-82,-73,-43,-14,-45,-56,-40,-65,28,-26, -27,-23,-78,-68,-37,-41,-83,-99,-49,-27,-44,-8,-42,-77,19,-27,46,-37,-21,-3,-59,-18,-3,-32,-24,-49,31,-26,-32,-27,-46,13,17,-78,-36,-9,-83,-5,-55,50,-64,47,-44,11,-8,-76,-66,-17,34,-7,-59,-52,-53,19,-4,14,-36,13,-58,1,-70,25,-67,19, 
  /* [72][0][][] */ -42,-32,-80,17,3,-24,31,-30,-43,-9,5,21,-67,-22,-12,-18,9,-28,-52,-16,3,-77,-54,40,-21,-44,1,-1,17,-30,3,-36,-1,-17,118,0,-56,1,-1,-10,18,-19,-57,-8,-63,-34,2,-12,54,15,-11,-54,-54,14,6,0,-77,71,-50,14,-35,-4,61,-18, 7,-31,-16,-19,-31,-9,-16,-4,-46,-8,-40,25,-46,8,48,-35,-38,13,-37,8,-7,-48,-30,-13,2,-60,-20,-27,1,-24,-37,-27,-16,127,9,11,-51,27,-32,-19,15,-15,-52,22,-96,-23,-22,-3,23,-43,26,25,-28,-24,-11,-35,-22,46,41,-9,-10,-8,52,22, 8,-7,-29,24,19,-2,-7,0,-12,-4,-30,13,-53,-15,21,-8,4,22,-22,-1,22,-22,12,-9,4,7,5,-3,-20,-20,-11,-1,-20,13,-11,75,-12,17,-48,-10,-4,35,-25,-25,-35,-48,26,-20,-54,11,0,45,-28,47,-12,-16,-20,38,-4,5,-1,16,32,9, 
  /* [73][0][][] */ 28,-1,-29,53,-46,25,-18,-79,0,-14,-37,-22,-52,-48,-45,-13,-23,5,4,-13,-41,45,60,-34,-9,37,11,-21,12,-38,-39,-1,33,-9,-26,-3,-40,-7,-47,45,37,34,-16,9,-14,-35,-23,-74,24,17,-17,-53,-5,-2,-3,-52,-4,77,3,39,-2,3,34,-31, -10,-46,28,32,-99,-43,-15,38,9,-7,26,0,-49,-13,-31,-56,-5,-23,-23,0,-26,-31,-14,41,15,-33,-6,12,19,-44,39,-55,-64,-31,-49,0,-31,-37,-4,-18,-15,-42,9,-84,-9,-63,-5,60,74,-4,-8,19,18,24,-21,57,-57,-24,-32,-14,-14,-15,28,-8, -21,65,-45,-28,-44,-61,-1,30,10,-15,127,1,11,2,-35,-17,14,-41,28,-12,36,-13,-23,89,19,-49,0,-25,40,2,-13,-43,-53,-16,21,108,-33,-13,-41,-30,-4,-49,64,-11,1,16,8,-13,41,-23,10,-50,54,3,-46,-18,-43,72,-56,-44,-5,25,34,-5, 
  /* [74][0][][] */ -19,0,-18,13,-123,-31,-5,27,13,-56,3,31,4,20,1,-20,-3,9,-1,25,12,-12,-37,127,9,54,-12,-40,-6,63,-14,16,-30,58,-51,-14,-30,65,-13,32,-11,-42,-33,-84,-3,-62,32,4,-2,-46,-35,18,27,-52,-39,-45,-52,67,13,7,-20,-14,-3,21, -15,16,-38,-14,-24,-29,-10,55,-51,-30,49,-10,18,-41,-72,-1,8,-56,2,31,21,-66,-50,-32,8,3,-15,-28,-12,-40,7,3,-1,4,64,28,-44,-57,-1,92,15,-11,-3,-79,5,-41,-29,-43,-3,16,-34,-4,16,-11,-4,-26,-77,-69,-91,-13,-37,-7,-10,-17, -12,2,-24,-11,87,-8,-13,-51,-8,-15,19,36,49,38,-24,-20,-13,77,-23,71,36,-26,-30,-68,14,-16,-68,7,-27,10,-2,-2,-14,-1,-72,39,29,-26,74,-43,28,29,64,34,22,4,-3,11,25,17,97,-25,-58,-42,5,-28,-18,18,40,58,35,7,6,-16, 
  /* [75][0][][] */ -14,-4,-14,-16,33,0,-2,-12,-17,9,25,-4,22,35,11,17,-2,20,-28,1,-7,-46,-28,-12,11,-10,4,-49,-14,21,3,-16,-1,33,11,-30,13,-53,-45,0,28,-42,-14,-4,46,-73,-16,-44,-43,-2,27,-10,-12,0,-5,-60,-6,37,-14,-27,19,5,-27,-13, -15,-26,-18,-31,-7,-25,1,-27,10,-3,-6,13,15,10,0,-7,-14,48,-46,-8,-29,-65,2,39,-1,-21,4,14,-43,-9,50,14,8,12,22,-9,11,6,-43,-39,-2,-41,-74,6,-9,-22,19,13,8,25,8,-1,-21,19,3,4,4,60,-21,-15,27,11,1,5, -5,1,-20,-27,124,-1,21,20,44,-12,68,-18,-15,26,-2,45,-7,9,-62,9,-14,-64,1,-36,3,12,-4,-26,14,-20,-20,4,-41,-127,1,-20,29,1,-5,-42,50,-24,-35,7,32,-12,-10,-24,-2,42,46,46,-20,0,18,-43,13,30,69,-27,27,-18,-9,-1, 
  /* [76][0][][] */ 35,-51,-6,-22,-50,-1,-6,-42,-40,12,-82,-19,-20,19,-24,8,-5,-82,-28,-3,-12,-21,-54,3,6,-29,17,-30,37,11,27,-1,-26,32,4,12,33,12,-27,-10,-115,3,-42,52,-71,-39,14,-38,61,8,-34,-31,-11,-45,-38,0,12,47,-35,4,-36,14,-50,-28, 68,-20,-54,74,37,15,14,-66,-44,52,-37,59,-13,-23,-34,60,-23,-49,-28,-34,-27,-100,10,25,2,17,14,6,-90,-7,68,-20,-13,-100,-121,49,16,-23,30,-8,-9,-16,-14,-18,-48,-48,4,-14,-2,81,3,14,12,-35,-45,-8,-33,15,27,17,-31,20,82,-7, -96,-49,24,44,11,-62,-20,9,34,-38,5,-1,51,4,-64,-82,-35,16,-36,-37,-84,13,-20,-40,6,-29,2,34,23,-54,45,-49,-15,-75,23,-4,-20,-17,79,60,52,-19,-86,-37,-5,67,22,91,79,-97,-61,10,127,-6,-20,29,2,2,5,-20,-50,13,-2,-48, 
  /* [77][0][][] */ -51,4,-49,7,1,-26,-10,-22,-3,1,-31,-12,-39,-33,-36,-31,-1,-13,-32,6,-15,-30,-41,-21,0,-34,7,-40,8,-66,-36,-26,13,-10,5,33,-56,-33,8,-7,-37,-8,-24,-82,-5,-25,1,4,-22,-26,-95,9,24,-14,-16,-3,-37,3,-32,28,-16,10,9,-21, 21,-21,-34,11,-28,3,1,-1,3,-16,-92,-3,30,-21,-1,-20,9,-29,-14,-11,-32,-27,0,31,-6,-14,0,-46,9,-16,-32,-26,8,-11,2,41,-40,-46,-17,11,-17,-29,-1,-25,-24,15,6,8,-1,-22,-4,-3,-14,12,1,30,-7,23,-40,20,-1,4,19,-15, -14,-27,-26,42,-78,-22,14,83,-7,-19,-4,-15,-30,-39,-37,-22,-2,-28,12,5,-23,-11,-19,-13,-7,-36,14,-27,-9,-32,-23,-45,-11,-6,4,4,-34,4,-24,5,74,-13,-21,-127,-10,22,-3,4,-20,23,-46,-34,106,-13,4,-41,-16,9,-8,-37,-37,-8,-21,-7, 
  /* [78][0][][] */ -62,-3,-37,-63,-31,-82,-11,-3,9,-8,14,-21,-25,-21,20,27,-40,-23,-91,35,-56,-44,-18,-47,-3,-90,46,-31,-48,-42,-94,-96,-55,-87,-59,11,-86,6,-6,16,-50,25,14,26,1,-65,11,-44,-49,-49,-72,-46,65,21,-4,-38,-4,-52,-127,11,-69,7,-22,-66, -8,-19,-92,-9,-22,-67,-57,-36,21,-18,8,-28,11,-85,-73,26,4,26,-41,-7,-81,20,2,-43,-35,-36,57,-53,41,-72,24,-14,-15,-65,-51,-53,-13,-47,-63,52,-12,-9,115,-35,-62,-24,-26,-12,-34,23,-25,-37,-3,-67,-52,-93,-6,-18,12,-83,-38,-49,-14,-55, -96,-56,-57,14,-3,22,-4,-21,-1,11,-35,-26,-72,-53,3,-27,6,-46,19,-15,-19,2,-34,22,21,26,25,27,-52,-56,-9,-66,22,-3,-40,-40,-55,-3,21,0,20,-53,-24,-60,-35,42,26,-5,7,-9,-28,-54,-26,2,-36,-10,-41,-40,-12,-102,-41,7,-60,-22, 
  /* [79][0][][] */ -7,-28,19,-21,-27,-35,6,3,29,-7,1,25,14,-24,-9,6,-13,22,-12,10,4,-14,5,-24,-24,2,-23,-35,-14,-23,-11,3,65,-23,127,-19,10,-39,-8,-17,16,-17,-58,4,-5,-46,-2,-16,-24,-22,-2,-5,-34,-8,2,10,27,12,9,8,3,10,7,-10, 9,-37,19,-6,-26,11,-15,-15,-19,23,-27,4,-17,-14,-11,49,-11,-4,-38,10,-25,-7,21,-35,5,21,20,27,-1,-1,-6,-5,-18,-6,20,49,27,-13,3,-32,-36,-28,24,21,9,-9,2,12,26,29,-7,9,5,26,-13,35,7,8,-39,5,-7,-10,20,-2, -56,-18,1,-39,-18,-13,-6,-20,-7,6,-5,-12,15,-19,-31,-58,-12,3,-29,14,-57,23,11,-6,-10,-25,12,-12,-22,-22,-12,-6,-38,-78,5,18,-1,-17,-32,-3,-24,-39,-5,-10,17,10,20,-7,25,-58,-6,-14,7,-28,-6,-28,17,15,-42,-74,-1,0,-14,-11, 
  /* [80][0][][] */ -107,16,-11,43,-86,-72,0,32,107,-12,-16,-1,66,-47,-23,-20,-7,-51,6,-6,-16,-72,-16,25,27,-25,-6,13,12,-69,4,-34,-31,-88,-34,-40,-25,-77,-127,-21,-21,-33,33,-94,31,31,1,73,54,-33,-50,41,72,-36,-30,-15,-71,-13,-75,-27,-37,-2,83,4, -37,107,-31,-14,-6,-22,22,-6,-6,-2,83,0,67,-10,-6,9,10,41,36,8,17,54,-34,-23,-2,-21,-2,-16,43,-45,-49,15,26,16,12,-35,-16,-28,-34,33,-1,3,25,-37,43,13,1,-7,-40,-26,32,-25,1,-35,34,1,36,-54,-21,13,-7,-14,-11,7, 46,-25,-5,-15,-34,34,-2,-41,17,17,5,1,-29,14,46,33,3,19,-32,-18,-15,17,8,-32,-19,-20,-1,-3,38,40,-33,4,-26,-15,0,22,21,25,-11,-58,25,-1,15,61,-15,-51,13,28,-3,9,21,-13,-33,49,13,44,8,9,33,-33,8,-23,11,19, 
